tree
version=v4
num_class=1
num_tree_per_iteration=1
label_index=0
max_feature_idx=14
objective=binary sigmoid:1
feature_names=user_total_orders user_total_items total_distinct_items user_average_days_between_orders user_average_basket aisle_id department_id product_orders product_reorders product_reorder_rate UP_orders UP_orders_ratio UP_average_pos_in_cart UP_reorder_rate UP_orders_since_last
feature_infos=[4:100] [3:3638] [1:726] [0:30] [0.75:56.200000762939453] -1:83:24:123:120:21:107:37:116:115:17:91:78:31:69:112:84:3:16:104:38:81:121:19:92:96:72:88:131:117:98:108:67:106:86:59:45:77:94:54:9:66:36:61:4:53:129:93:63:32:52:114:128:130:26:50:79:23:89:110:105:74:75:51:43:14:35:49:42:85:2:5:30:20:29:25:100:57:13:99:95:64:122:34:48:47:1:127:111:41:6:22:60:11:27:58:12:71:65:8:97:101:7:70:126:40:87:28:133:125:39:90:124:119:56:62:80:15:46:76:118:68:103:109:73:10:44:102:55:33:18:134:132:82 -1:4:16:19:13:1:7:15:9:17:3:20:14:12:11:18:6:5:21:8:2 [2:472565] [0:398609] [0:0.89189189672470093] [1:94] [0.0099999997764825821:2.7999999523162842] [1:114] [0.0099999997764825821:2.7999999523162842] [-83:99]
tree_sizes=10669 10750 10973 10948 10967 10982 11207 11267 11322 11135

Tree=0
num_leaves=96
num_cat=9
split_feature=11 14 11 10 14 14 11 9 14 10 5 14 11 10 14 9 14 14 11 9 14 14 14 10 11 9 11 11 14 9 10 5 11 14 10 14 10 0 8 5 10 9 9 9 0 10 8 11 14 14 9 11 10 9 9 14 11 14 10 0 14 11 9 10 14 11 8 5 14 10 14 5 9 5 14 5 14 10 9 14 14 0 9 9 9 8 9 10 11 5 9 10 14 9 5
split_gain=788234 171526 127520 61654.1 43952.1 27244.5 21766.6 18309.4 16176.9 12573.5 11298.2 10355.4 9622.18 6369.33 6109.05 5410.4 5241.46 4906.09 4323.84 4060.09 3668 3330.37 3296.37 3088.33 2989.17 2734.03 2614.29 2585.73 2460.11 2384.07 2224.48 2150.55 2123.28 2122.32 2104.97 1746.85 2505.37 1557.07 1538.88 1398.54 1333.18 1299.87 1232.5 1174.06 1136.36 1134.22 1068.49 951.876 914.51 898.252 883.94 827.995 805.481 780.168 775.761 752.263 734.835 714.215 699.108 698.805 1754.79 685.469 684.705 674.317 661.187 657.146 653.722 653.595 622.616 606.328 561.418 556.462 555.475 539.641 537.227 529.474 517.91 516.098 512.248 510.396 507.251 469.523 464.292 464.075 453.815 441.251 440.446 434.308 427.36 417.509 410.665 382.984 382.632 368.404 340.756
threshold=0.28647416830062872 3.5000000000000004 0.50280898809432995 1.5000000000000002 2.5000000000000004 1.5000000000000002 0.10050505027174951 0.57323563098907482 1.5000000000000002 3.5000000000000004 0 1.5000000000000002 0.75140449404716503 3.5000000000000004 3.5000000000000004 0.64365634322166454 5.5000000000000009 9.5000000000000018 0.16760300099849704 0.40133816003799444 1.5000000000000002 1.0000000180025095e-35 1.5000000000000002 6.5000000000000009 0.16760300099849704 0.57450440526008617 0.14365079998970035 0.60172414779663097 1.5000000000000002 0.6936996877193452 1.5000000000000002 1 0.14365079998970035 1.5000000000000002 13.500000000000002 8.5000000000000018 4.5000000000000009 6.5000000000000009 15560.000000000002 2 2.5000000000000004 0.69717261195182811 0.74998745322227489 0.53646191954612743 9.5000000000000018 8.5000000000000018 9441.5000000000018 0.043717153370380409 2.5000000000000004 3.5000000000000004 0.50516530871391307 0.40121951699256903 5.5000000000000009 0.73780459165573131 0.65160736441612255 3.5000000000000004 0.15438786894083026 1.0000000180025095e-35 2.5000000000000004 11.500000000000002 7.5000000000000009 0.87577161192893993 0.81229603290557872 5.5000000000000009 2.5000000000000004 0.14933950453996661 7498.0000000000009 3 1.5000000000000002 3.5000000000000004 2.5000000000000004 4 0.70180499553680431 5 5.5000000000000009 6 8.5000000000000018 7.5000000000000009 0.71905958652496349 5.5000000000000009 7.5000000000000009 6.5000000000000009 0.43752518296241766 0.69717261195182811 0.40133816003799444 10462.000000000002 0.75810757279396068 4.5000000000000009 0.4252659678459168 7 0.80585938692092907 2.5000000000000004 2.5000000000000004 0.6917414963245393 8
decision_type=2 2 2 2 2 2 2 2 2 2 9 2 2 2 2 2 2 2 2 2 2 2 2 2 2 2 2 2 2 2 2 9 2 2 2 2 2 2 2 9 2 2 2 2 2 2 2 2 2 2 2 2 2 2 2 2 2 2 2 2 2 2 2 2 2 2 2 9 2 2 2 9 2 9 2 9 2 2 2 2 2 2 2 2 2 2 2 2 2 9 2 2 2 2 9
left_child=1 3 4 7 9 12 17 19 10 15 26 29 27 25 34 33 23 30 38 67 31 -14 71 55 39 65 78 44 53 73 46 77 75 50 48 36 66 -23 59 -12 83 57 70 87 72 93 82 -19 52 -25 -2 -33 -7 -17 -34 58 -27 -29 -6 84 69 -39 -31 -59 -36 -10 81 -1 -69 -61 -13 -21 -4 -9 -38 -15 -18 -11 -5 -16 91 -20 -3 -28 -8 -49 -30 -26 -52 -41 -42 -40 -58 -22 -73
right_child=2 6 5 8 16 14 18 11 13 20 24 42 21 32 79 28 76 47 35 22 45 37 -24 49 43 56 40 41 86 62 -32 51 54 -35 64 -37 74 61 80 89 90 -43 -44 -45 -46 -47 -48 85 -50 -51 88 -53 -54 -55 -56 -57 92 63 -60 60 -62 -63 -64 -65 -66 -67 -68 68 -70 -71 -72 94 -74 -75 -76 -77 -78 -79 -80 -81 -82 -83 -84 -85 -86 -87 -88 -89 -90 -91 -92 -93 -94 -95 -96
leaf_value=-2.2984217739803272 -2.0498285949459962 -2.3109637413930275 -1.8253473127889357 -2.0565142640019469 -2.1467964985357511 -1.9092165893812665 -2.3038088214949277 -2.1302994202341514 -2.228270799329485 -1.8144297088663288 -2.1160550737463266 -2.2049956108432833 -2.1133576332092612 -2.105850730375848 -2.057669735617178 -1.9102216974943198 -2.1896606440592614 -2.3201043725884736 -2.2698879023812188 -2.2457881201090459 -1.9857552133379008 -1.5890588047509939 -2.2552052581296977 -1.9654987705884441 -2.1278464603304719 -2.166003442231788 -2.0302033403266506 -2.15166554810058 -2.0235853121757659 -2.079729283668394 -2.260225496186075 -1.9125069583162064 -2.0863466993478803 -2.091591118831726 -1.6872777058416435 -2.2676325933190129 -2.1253086554965925 -1.4820231408075 -2.2361749181453701 -2.2527601936985873 -1.9306759352375129 -1.5906881992255792 -2.159123626009424 -2.025906100494022 -1.6939290507182054 -1.8746354359129462 -2.2735657843502994 -2.310259140862803 -1.974749323323288 -2.0629174445739724 -2.000560315078673 -1.8369184525585265 -1.8026712831800173 -1.8247447783878177 -2.0260540598819099 -2.1568539130214117 -2.0992128407893036 -1.7201873752479959 -2.071792620961034 -2.2482507973425956 -2.2843768107018168 -1.3725803253439848 -1.9661527021046044 -1.6336069294765174 -1.8473955645369067 -2.1836017375293659 -2.204142136188088 -2.2410661117454458 -2.2833555128232672 -2.1982186296259938 -2.2324149833428706 -2.1680632347779683 -1.7176423870453528 -2.1728002208076651 -2.1865314670594325 -2.177173614476521 -2.2583675325554773 -1.7506312672651121 -1.9845995691812495 -2.2053148637328261 -2.2639202874780588 -2.2294623197400338 -2.2946046281648091 -1.949445193245777 -2.27751658543017 -2.2924953077980392 -1.9332968362395218 -2.0399268878087864 -1.9365264916256335 -2.1769321867950602 -1.8233508145933133 -2.1881859512389181 -2.1469491420565658 -1.919216810123838 -2.2021964495528428
leaf_weight=14113.158134743571 2301.7076887190342 29363.934809342027 1526.2070801109076 4310.826912522316 1963.9427177608013 1363.0598932504654 9042.8012143820524 9687.2723083943129 7000.505493953824 2711.6491869091988 4841.1214463412762 15278.659049421549 87.970657274127007 1809.7955379635096 666.35346412658691 2972.825862467289 2743.060976266861 132230.39789125323 4145.6503123044968 2250.8841194212437 2659.4138517975807 1160.2950282394886 29892.817577347159 1798.5014114528894 2441.6489750146866 7297.9469038546085 2183.4723018109798 32.029436901211739 1992.7956815809011 5517.3572711646557 21706.075858324766 3315.7084845006466 5254.4158883392811 4111.4149913191795 931.41249567270279 7414.4175834953785 3024.0023732185364 2064.7075027227402 7786.7708168923855 1029.0008075535297 5265.7100148499012 2781.4433593302965 3974.6501781046391 3947.297215461731 2570.2078994363546 2171.2958216667175 17227.866461500525 64562.521256506443 800.55945180356503 1997.9133326560259 2410.6783624738455 2574.2667261511087 1479.9717497080564 1666.3248371332884 3593.4734083712101 3955.767810344696 3796.4147441089153 1818.2661328464746 3384.0908911079168 8704.3303605169058 16714.160175994039 791.73591546714306 587.29457855224609 1780.3249265998602 356.64733871817589 6219.3578220903873 6958.4172256290913 5380.504222586751 9863.654799759388 3356.1202809214592 14606.217345222831 4116.0914655774832 697.76525348424911 4450.8564341813326 2724.7080206871033 2544.4431733340025 1828.4131996333599 2381.6489279270172 1285.9421856701374 360.97087152302265 5446.8572158366442 9359.3896981328726 42399.474451318383 1055.5596519261599 23956.95997774601 17849.308125674725 741.26528762280941 729.79469038546085 1836.089676246047 2420.4724878072739 382.41206482052803 2114.6487183868885 3010.7670687139034 1211.0303621739149 10214.302133768797
leaf_count=159949 26086 332791 17297 48856 22258 15448 102485 109789 79339 30732 54866 173158 997 20511 7552 33692 31088 1498610 46984 25510 30140 13150 338785 20383 27672 82710 24746 363 22585 62530 246002 37578 59550 46596 10556 84030 34272 23400 88250 11662 59678 31523 45046 44736 29129 24608 195249 731708 9073 22643 27321 29175 16773 18885 40726 44832 43026 20607 38353 98649 189427 8973 6656 20177 4042 70486 78862 60979 111788 38036 165537 46649 7908 50443 30880 28837 20722 26992 14574 4091 61731 106073 480527 11963 271512 202292 8401 8271 20809 27432 4334 23966 34122 13725 115762
internal_value=-2.22191 -2.25781 -1.91298 -2.18121 -1.99635 -1.70629 -2.29299 -2.22205 -2.10586 -1.93154 -2.05006 -2.17761 -1.63569 -2.14703 -1.88771 -1.98972 -2.12495 -2.30603 -2.2547 -2.25376 -1.8699 -1.5047 -2.23537 -2.09278 -2.10991 -2.17458 -1.98662 -1.68366 -1.92386 -2.12103 -2.28893 -1.83547 -2.08999 -2.03528 -1.84149 -2.22478 -2.21266 -1.49137 -2.26775 -2.15065 -1.95274 -1.64213 -2.21144 -2.06231 -1.73922 -1.93248 -2.29593 -2.31485 -1.88034 -2.01677 -1.99992 -1.88005 -1.85375 -1.87952 -2.06186 -2.12379 -2.14396 -1.68154 -2.09934 -2.27479 -2.2634 -1.45169 -2.0688 -1.67735 -1.73161 -2.20726 -2.22904 -2.28287 -2.2684 -2.23433 -2.2184 -2.19961 -1.79156 -2.14358 -2.15433 -2.14716 -2.21714 -1.78545 -2.03999 -2.10955 -2.23941 -2.24187 -2.3013 -2.00389 -2.28472 -2.30641 -1.99911 -2.10761 -1.97288 -2.19958 -1.92341 -2.22593 -2.12033 -1.96494 -2.19236
internal_weight=0 636443 73999.7 200354 52729.8 21269.9 436089 129934 70420.4 35058.1 29893.3 54102.3 15311 40527.1 5958.98 18033.1 17671.7 325340 110749 75831.4 17025 4104.71 46474.1 13100.2 15409.3 27325 14483.9 11206.2 7373.21 20242.8 110697 10983.3 13202.1 10659.9 4931.65 33626.6 26212.2 4016.74 77122.6 8290.59 8887.15 6412.06 33859.5 7118.74 4794.18 6041.74 88991.3 214642 3643.59 3796.41 6548.48 5889.98 2843.03 4639.15 8847.89 9303.8 14105.1 3630.62 5348.03 61774.4 28774.6 2856.44 6104.65 3598.59 1288.06 13219.9 20463.5 29357.3 15244.2 12060.5 29884.9 16581.3 2223.97 14138.1 5748.71 4354.24 4571.47 5093.3 5596.77 1027.32 15348.3 13505 71763.4 3239.03 32999.8 82411.8 2734.06 3171.44 4246.77 3449.47 5648.12 9901.42 6807.18 3870.44 14330.4
internal_count=8051677 7213014 838663 2270678 597604 241059 4942336 1472581 798097 397325 338790 613159 173524 459307 67535 204375 200279 3687179 1255157 859422 192950 46520 526706 148469 174639 309683 164151 127004 83563 229418 1254569 124477 149624 120812 55892 381101 297071 45523 874056 93960 100721 72670 383741 80679 54334 68473 1008567 2432610 41294 43026 74216 66753 32221 52577 100276 105443 159858 41147 60611 700109 326112 32373 69186 40784 14598 149825 231919 332716 172767 136685 338695 187921 25205 160232 65152 49348 51810 57724 63430 11643 173947 153057 813318 36709 373997 934000 30986 35943 48130 39094 64012 112216 77148 43865 162411
cat_boundaries=0 4 8 13 18 22 26 31 36 41
cat_threshold=2239766538 1451593 944807937 151586837 2164260872 65 1745887233 151519236 2408852 1646348708 1074282632 640680968 1 575343648 8425472 1084296516 4514146 48 576391168 2426437776 1090522960 3221532738 2172657674 1443689 1616388101 151586829 2239758344 1507329 810557448 688457757 1 542770208 276856832 35720512 3225723266 48 2441146392 1142294085 4231298 151521304 2
is_linear=0
shrinkage=1


Tree=1
num_leaves=96
num_cat=6
split_feature=11 14 14 9 11 11 14 9 14 9 14 14 11 5 0 11 0 11 14 0 9 11 0 8 11 1 11 0 11 14 11 0 3 14 0 11 14 14 9 11 11 0 1 9 5 11 0 14 0 14 5 5 9 0 14 14 14 14 0 3 11 9 5 0 8 12 11 5 9 14 9 8 14 9 9 9 9 8 0 11 0 3 2 7 11 14 0 11 9 11 0 1 9 0 3
split_gain=512920 129365 57249.4 31030.7 26292.2 18024.7 15178.1 6596.78 6009.64 5828.22 4918.21 4893.31 3272.81 3117.43 2769.46 2764.4 4752.7 2654.44 2509.79 1943.15 1580.71 1562.86 1649.83 1381.37 1343.25 1594.33 1269.62 2029.21 1235.08 1165.48 1127.59 2763.67 1062.57 1058.89 1477.31 975.388 955.107 901.871 881.362 864.2 842.509 828.659 768.81 722.549 712.563 698.832 685.326 644.664 631.863 1440.78 583.052 573.193 548.509 537.606 525.565 523.102 514.405 510.496 485.993 478.278 463.932 449.358 443.279 440.206 440.051 420.527 404.416 404.395 386.859 384.967 378.098 368.463 365.241 364.473 359.353 343.257 339.46 336.844 324.188 316.505 311.528 305.426 301.746 301.186 294.701 293.696 293.18 291.03 282.257 279.879 277.664 271.904 268.339 267.994 265.538
threshold=0.25126262009143835 3.5000000000000004 2.5000000000000004 0.56411543488502514 0.50280898809432995 0.10050505027174951 1.5000000000000002 0.36030371487140661 4.5000000000000009 0.59473180770874035 1.5000000000000002 9.5000000000000018 0.66969698667526256 0 11.500000000000002 0.11167800426483156 8.5000000000000018 0.16760300099849704 1.5000000000000002 7.5000000000000009 0.51615241169929515 0.10050505027174951 9.5000000000000018 9441.5000000000018 0.10050505027174951 150.50000000000003 0.10050505027174951 9.5000000000000018 0.40121951699256903 7.5000000000000009 0.10050505027174951 9.5000000000000018 11.902380943298342 8.5000000000000018 11.500000000000002 0.043717153370380409 1.5000000000000002 1.0000000180025095e-35 0.6936996877193452 0.35758377611637121 0.4252659678459168 23.500000000000004 160.50000000000003 0.65160736441612255 1 0.37581168115139013 13.500000000000002 5.5000000000000009 11.500000000000002 7.5000000000000009 2 3 0.74253442883491527 24.500000000000004 1.5000000000000002 2.5000000000000004 5.5000000000000009 10.500000000000002 41.500000000000007 9.9701428413391131 0.40121951699256903 0.58446151018142711 4 29.500000000000004 10462.000000000002 2.9864864349365239 0.40121951699256903 5 0.51093894243240368 2.5000000000000004 0.39466790854930883 32758.000000000004 1.5000000000000002 0.69717261195182811 0.6917414963245393 0.28342911601066595 0.65014052391052257 105832.00000000001 29.500000000000004 0.20112359523773196 15.500000000000002 8.4431524276733416 75.500000000000014 65637.500000000015 0.4380482435226441 1.5000000000000002 12.500000000000002 0.4380482435226441 0.76100602746009838 0.22163742780685428 7.5000000000000009 386.50000000000006 0.6917414963245393 9.5000000000000018 14.525062561035158
decision_type=2 2 2 2 2 2 2 2 2 2 2 2 2 9 2 2 2 2 2 2 2 2 2 2 2 2 2 2 2 2 2 2 2 2 2 2 2 2 2 2 2 2 2 2 9 2 2 2 2 2 9 9 2 2 2 2 2 2 2 2 2 2 9 2 2 2 2 9 2 2 2 2 2 2 2 2 2 2 2 2 2 2 2 2 2 2 2 2 2 2 2 2 2 2 2
left_child=1 3 4 7 9 11 13 44 14 19 26 20 36 24 43 55 38 23 28 40 75 -15 89 48 88 52 50 67 42 53 -12 -32 60 34 68 -13 61 -14 -17 81 72 69 73 84 -1 80 65 -22 70 63 -9 -29 93 -10 62 76 -36 78 -41 -38 -20 -6 -46 -50 -37 -39 90 -28 -19 92 -7 -49 -2 -11 86 -3 -8 -40 83 -33 -21 -16 -27 -25 -4 -42 -30 -45 -5 -23 -34 -84 -18 -26 -63
right_child=2 5 8 6 12 17 15 10 29 18 30 35 37 21 39 16 41 33 32 45 47 22 -24 57 25 82 27 51 74 -31 31 79 66 -35 56 64 59 46 77 58 85 -43 -44 87 54 -47 -48 71 49 -51 -52 -53 -54 -55 -56 -57 -58 -59 -60 -61 -62 94 -64 -65 -66 -67 -68 -69 -70 -71 -72 -73 -74 -75 -76 -77 -78 -79 -80 -81 -82 -83 91 -85 -86 -87 -88 -89 -90 -91 -92 -93 -94 -95 -96
leaf_value=-0.068896512622588946 0.11634267018880365 -0.091512357156452964 0.043936552466608547 0.09433657269205005 0.26437307996198267 -0.07960294323483684 0.0059586941059117998 0.048053290656494586 0.025487831358641522 0.18305898318965438 -0.035978782117802276 -0.096131106612250827 0.079388580050983149 0.051773282667723297 0.16445133836403769 0.010204705344430494 0.08098703789379412 -0.044303567714321555 0.20346367578117175 0.14424612473358475 -0.037823388274656096 0.065152513060055026 0.14605145293153421 -0.029009673603903254 0.10921777450641762 0.27780825121199099 0.054661185799521533 0.14699057276085151 0.23403962104944409 -0.025992928416665874 -0.022826280873213693 0.038050487332052602 0.11581290697876179 -0.043807628359533175 0.053940457392661359 -0.085760985700388093 0.30232587847766085 0.37102844703207721 0.042593610089265599 0.17143586490748242 0.17788731215448156 0.12805337555573984 0.25262786365292395 0.095443879450164304 0.04708975224555019 0.21910387363587849 0.38583137636880682 -0.064918484667172843 -0.023095337265378227 -0.060463846792399467 -0.0049047952231811237 0.079811562259317737 0.17421204784344652 0.087210657369180489 -0.0514524564112303 -0.0082016207787785171 0.0083234489671639607 -0.052265206492464182 0.26443829576816169 0.22278678484285816 0.27434072637627099 0.32877045670167765 -0.025958302201375572 0.02484026643950981 -0.067477631272854388 0.32408852216274464 0.1933543607982422 0.015784480247162575 -0.0072402240658568113 0.055303115882830337 -0.054193934265002075 -0.038063227891685286 0.062123390720593134 0.22887936318769328 0.29298205282609241 -0.072155303441281321 0.039703329104808172 0.098962090636448702 0.023606986692941867 0.089703587450255473 0.18912991914187616 0.10566765817333851 0.17824423238510378 0.001609879206369914 0.10757564595268015 0.11763790552976124 0.29052406397534652 0.16418686331238169 0.14988162690403806 0.10302394944687004 0.16638689915367552 0.23012218310604304 0.1302535957328598 0.16339038482388388 0.29360622862441282
leaf_weight=13659.803329922259 3073.2795678451657 12178.703882582486 4901.0446092933416 4807.0293624401093 2570.5999025404453 8132.3481500148773 6094.4063537940383 2925.2891434878111 5030.9574019312859 4007.9460526481271 16522.017531223595 122086.36040501297 118.92017424106598 7411.6885916367173 1238.8734141886234 15261.190072119236 3406.1269882842898 4252.3937427476048 2811.7606855928898 3440.3514546900988 19734.122413277626 5383.0096363201737 6449.711062669754 9121.3110187649727 4807.1793455481529 557.04524234682322 4347.7624032273889 2006.0935495048761 2820.0651426464319 3801.6128674000502 19596.921325832605 6236.4527982473373 1904.135825291276 6166.9700003862381 5110.1274862736464 60092.942860245705 1024.550500549376 2813.0150125473738 4956.6361965537071 3596.7532174810767 2381.8949859887362 5456.3469566181302 5551.1790916249156 2810.7039741948247 1056.5091663002968 3733.0801369324327 4919.8542845025659 29806.233829319477 8233.3615226373076 14241.78090441227 7125.2795643955469 3790.9827620834112 2652.1210836023092 1961.2703628242016 8258.2846448048949 10420.917361833155 4788.3928446471691 4087.8219159841537 665.90369150787592 2884.1571369469166 1375.1872746944427 4507.6001958250999 3755.1133358702064 2496.6835073828697 16856.791490018368 5936.098676584661 2770.9690016135573 7005.9449186101556 8338.4468460977077 3954.8300879374146 20925.604429215193 6165.8549066707492 2085.554501503706 3062.4532770216465 4582.4399674013257 36970.725427664816 5835.6702602133155 1348.5489691123366 2133.1950007081032 1464.9361031204462 2808.9819077849388 3084.5902066528797 2470.6967215165496 4958.9536383599043 854.54294073581696 1225.2869005799294 1363.0730040594935 788.66268511116505 1129.8968334719539 3061.0742376968265 2525.3344485536218 1709.2167431935668 1636.832547545433 1127.3583876788616 4101.3953960388899
leaf_count=162413 30188 147745 52340 49173 20225 98500 67733 31491 54916 36733 191546 1498610 1227 78171 12284 172296 35544 49284 26106 33354 234414 57320 63546 105762 49737 5165 47660 19519 24823 43854 228089 68212 18802 72524 55816 731708 8203 19986 55014 34613 22495 55203 47896 29816 11807 32532 33963 354999 95075 169782 79303 39468 25596 20843 97194 116741 53542 48135 6214 24474 12446 34012 42731 27763 202292 42767 26098 78510 94859 41996 248157 72647 21722 26442 38248 444764 64095 14599 24037 15328 25718 31252 23095 56845 8531 12524 11262 7832 10966 31763 23913 15754 16889 10652 31444
internal_value=0 -0.0368668 0.198682 0.0294964 0.241982 -0.0691104 0.0686797 -0.0105633 0.0775312 0.19917 0.0053737 -0.0813632 0.318368 0.114862 0.113003 0.0357936 0.0529361 -0.0329554 0.224608 0.154702 -0.0638804 0.0892563 0.107969 -0.0429237 0.144394 0.162098 0.038774 0.0553125 0.244801 0.0185714 -0.0153595 -0.00287984 0.186684 -0.00709896 0.00296719 -0.0905734 0.286186 0.353586 0.0231987 0.154014 0.120347 0.097306 0.224774 0.0753628 -0.0529084 0.18487 0.355972 -0.0523475 -0.05128 -0.0396145 0.010552 0.10345 0.136405 0.0428006 -0.0361182 0.00816706 0.0318733 -0.0206842 0.185965 0.243636 0.226743 0.301063 -0.0098749 -0.0119416 -0.0817558 0.339181 0.163391 0.0307339 -0.0197579 0.0786604 -0.0613051 -0.0603153 0.0944235 0.202905 0.273637 -0.0769518 0.0224651 0.0546497 -0.0127218 0.0478758 0.164421 0.122512 0.208671 -0.0182257 0.0533852 0.157422 0.252445 0.110506 0.104908 0.0788813 0.144646 0.199458 0.0969779 0.119509 0.312018
internal_weight=0 604568 109134 197689 80399.2 406879 99937.5 97751.4 28734.9 51523 71021.7 303892 28876.2 41566 17941.1 58371.5 36020.5 102987 32774.5 18748.4 104856 22305.5 14893.8 74331.1 19260.5 13323.6 27201.4 17150.8 21387.2 10793.8 43820.3 27298.3 11387.4 28656.3 22489.4 199036 15088.3 13787.9 21566.4 8586.12 8766.02 14454.1 12621.6 9354.95 26729.7 9982.41 13669 55706.2 54029.8 24971.8 10050.6 5797.08 8586.66 6992.23 13069.9 22351 9898.52 20301.3 4262.66 3908.71 4186.95 11179.6 4811.62 10730 76949.7 8749.11 7200.44 11353.7 12590.8 8997.79 29058 35972.1 5158.83 7070.4 8765.58 49149.4 11930.1 6305.19 16213.5 7701.39 6249.33 4323.46 4736.96 14080.3 5755.59 3607.18 4183.14 3599.37 5936.93 8444.08 4429.47 4179.91 5042.96 5934.54 8609
internal_count=8051677 7061579 990098 2174319 687603 4887260 1061048 1113271 302495 471302 799126 3687179 216301 420938 182882 640110 391541 1200081 292769 178533 1254569 230800 152629 874056 190138 129999 295951 185157 185404 119613 503175 311629 107365 326025 253501 2432610 118358 97943 241909 84363 86929 149632 111071 98519 314145 91604 96716 662060 639277 292620 110794 58987 85985 75759 151732 248569 109358 234779 40827 32677 38552 85681 54538 122838 934000 62753 68813 126170 144143 94429 346657 427646 51910 63175 74333 592509 131828 69613 186644 83540 59072 43536 44014 162607 60871 35019 36085 37648 60139 89083 42715 38849 52433 60389 65456
cat_boundaries=0 4 9 13 17 22 27
cat_threshold=2164531458 1179649 1213202437 151519248 541723744 8425472 10552644 1145365346 48 2432745502 1091855457 2428534913 151586832 2239799372 538256481 268492928 152569884 293630218 2509284 269492360 51447825 2 159428620 637617216 4780162 151522325 2
is_linear=0
shrinkage=0.1


Tree=2
num_leaves=96
num_cat=12
split_feature=11 14 14 10 11 11 9 14 9 14 14 11 10 14 10 9 5 11 11 9 14 10 8 14 10 9 14 14 5 5 10 14 8 9 9 5 11 0 14 10 5 11 10 5 9 9 14 5 14 14 0 9 10 14 14 9 11 0 14 0 14 5 0 11 9 7 10 9 3 5 9 5 14 3 14 7 14 14 3 14 11 5 0 10 11 11 10 5 3 7 7 14 0 0 14
split_gain=367246 111719 31888 26788.6 17209.5 13421.2 12175.3 6168.44 5511.41 4089.1 3653.17 3537.13 3516.02 3153.09 2353.73 2183.52 1819.2 1713.94 1620.24 1592.96 1573.46 1490.28 1305.87 1159.47 2168.2 1155.29 1049.75 1020.04 987.619 980.414 958.876 942.307 818.834 803.365 693.76 665.945 650.434 610.821 1352.06 597.509 582.818 552.887 552.711 542.96 530.562 515.241 489.047 462.484 440.947 434.124 432.605 429.29 429.131 402.867 397.899 388.002 384.726 381.772 380.033 377.659 371.518 367.723 360.152 349.03 344.041 334.151 331.75 325.229 324.05 304.301 304.261 303.445 295.281 289.995 286.668 278.86 274.63 268.896 267.295 266.976 253.488 252.72 250.885 248.19 244.774 237.276 236.651 234.649 229.458 224.527 221.822 219.988 213.759 213.695 208.087
threshold=0.25126262009143835 3.5000000000000004 2.5000000000000004 1.5000000000000002 0.083771932870149626 0.50280898809432995 0.53013327717781078 1.5000000000000002 0.59658446907997142 4.5000000000000009 10.500000000000002 0.14365079998970035 3.5000000000000004 1.5000000000000002 4.5000000000000009 0.35746212303638464 0 0.13373984396457675 0.66969698667526256 0.65160736441612255 1.5000000000000002 1.5000000000000002 9441.5000000000018 9.5000000000000018 3.5000000000000004 0.67937025427818309 1.5000000000000002 1.5000000000000002 1 2 4.5000000000000009 8.5000000000000018 6404.5000000000009 0.5435219705104829 0.40772391855716711 3 0.040202019736170776 13.500000000000002 8.5000000000000018 13.500000000000002 4 0.37581168115139013 2.5000000000000004 5 0.71551167964935314 0.6917414963245393 7.5000000000000009 6 1.5000000000000002 5.5000000000000009 5.5000000000000009 0.60840657353401195 6.5000000000000009 1.0000000180025095e-35 1.5000000000000002 0.74609300494194042 0.18537609279155734 13.500000000000002 2.5000000000000004 6.5000000000000009 1.5000000000000002 7 7.5000000000000009 0.37075218558311468 0.39466790854930883 27559.500000000004 3.5000000000000004 0.71551167964935314 11.403124809265138 8 0.39466790854930883 9 3.5000000000000004 5.2087116241455087 1.0000000180025095e-35 102441.50000000001 1.0000000180025095e-35 5.5000000000000009 13.017857074737551 1.5000000000000002 0.4252659678459168 10 10.500000000000002 3.5000000000000004 0.8015151619911195 0.074271079152822508 6.5000000000000009 11 4.981105089187623 17752.500000000004 137481.00000000003 2.5000000000000004 10.500000000000002 7.5000000000000009 5.5000000000000009
decision_type=2 2 2 2 2 2 2 2 2 2 2 2 2 2 2 2 9 2 2 2 2 2 2 2 2 2 2 2 9 9 2 2 2 2 2 9 2 2 2 2 9 2 2 9 2 2 2 9 2 2 2 2 2 2 2 2 2 2 2 2 2 9 2 2 2 2 2 2 2 9 2 9 2 2 2 2 2 2 2 2 2 9 2 2 2 2 2 9 2 2 2 2 2 2 2
left_child=1 3 5 6 10 12 15 19 17 14 21 22 16 35 51 61 26 29 44 69 47 32 37 24 33 59 76 43 60 -5 58 52 70 62 -18 73 89 64 66 72 54 -30 -29 -19 48 53 57 -17 74 -26 -27 -4 -11 -20 -31 92 88 90 81 -9 -14 -1 -13 -36 -6 -38 -39 -28 -55 -8 -3 -45 -16 -10 -7 -35 -2 -23 -53 -63 -78 -15 -71 -75 -47 -42 -43 -49 -37 -12 -24 -61 -21 -22 -72
right_child=2 4 9 8 11 18 7 25 13 31 36 23 28 30 39 20 34 27 45 55 93 77 46 -25 49 50 67 42 41 40 -32 -33 -34 75 63 56 65 38 -40 -41 85 86 -44 71 -46 84 -48 87 -50 -51 -52 78 -54 68 -56 -57 -58 -59 -60 91 -62 79 -64 -65 -66 -67 -68 -69 -70 82 94 -73 -74 83 -76 -77 80 -79 -80 -81 -82 -83 -84 -85 -86 -87 -88 -89 -90 -91 -92 -93 -94 -95 -96
leaf_value=-0.073294828824825381 -0.035436291090808425 -0.087445437442035839 0.037871495970880971 -0.039813019918057829 -0.080196524875632974 0.0081281251204362824 0.062247511730621041 0.004809008907363594 0.095665752905189708 0.013091469080945883 -0.097206730925386231 -0.056728282916580268 0.21423289994845926 0.088890917645266854 0.12986255791907794 -0.03384978413771951 0.046427060392069938 0.13011381949263257 0.040959708837895695 0.08917945912807311 -0.026624044191973631 -0.020208284503131446 -0.03407613784461315 -0.049245714408759036 0.056396192576781357 0.051402919348166876 0.099707799695430491 0.019692810505689662 0.14657731328154019 0.1035428925330335 0.11036573322925157 -0.033480782451377096 -0.052570616796781891 -0.011038164742900524 0.090618152629941967 0.036578662702693575 -0.08526846793953223 -0.029215774648949085 -0.065042887326697663 0.17281539306443308 -0.0028783091618115385 0.16446299062910563 0.066032095795186332 0.012001010077048234 0.23430780508827029 0.25848367178554243 -0.045500011522467319 0.045160199959840192 0.16591896572577958 0.013670805505819603 0.013608732086994205 0.11951182200821031 0.059294731852713591 0.26868693437396413 0.035713762444161364 0.11761641757861691 0.13954016995483495 0.008041158214777893 0.042488531312497163 -0.0072623884118040568 0.17535574883822908 -0.023198767654575556 -0.022226866196617859 0.12566315697187067 -0.058568834477771864 -0.065025465613020916 0.0093311292483870458 0.15145654194206432 0.22536470141834616 0.043435937151596618 -0.060198360833472214 0.083030385557368511 0.087454212002646275 0.14496685864006262 0.21152365863965827 0.03257916120645446 0.15990581321377428 -0.047068558590453224 0.066577461412427277 -0.059178630401099656 0.19237098446031231 0.051863458519993778 0.012295821560408003 0.18222116173462855 0.29348843797417634 0.030228873672166173 0.19622069695548949 0.0072489436062454435 0.1038761402170818 -0.084310204289897481 0.015581577449335303 -0.029806031240807929 0.057164214919647183 -0.045456737563134814 -0.076835579344854257
leaf_weight=11461.035469062626 63.410793252289295 19019.085622526705 4857.9861731678247 2262.0912110731006 10299.408318310976 69.84980320930481 4914.5959207862616 12638.34457360208 798.49628449976444 4520.4127976596355 84145.699439369142 6453.8460483923554 7702.3295529782772 5072.5881323739886 4485.3016230165958 2487.3406211957335 1918.4047958105803 2615.7159834951162 104.57960173487663 6060.4602575004101 11495.041609592736 5645.5853799134493 7407.3704854995012 7978.0980077460408 4540.7772741466761 4730.3940642550588 3570.2296706438065 4688.6807660087943 9720.0389845520258 1585.3170928359032 5318.080673635006 2815.0606921315193 17865.018593735993 15373.906101986766 4818.3634243309498 560.77714557945728 54759.670220270753 8468.251613534987 14392.081131212413 2320.4425284713507 3347.0434340462089 4617.0539345219731 5706.8270156979561 701.84144366532564 6349.4162565171719 5693.3367960825562 9372.8721750751138 1946.4621955379844 3077.9130443930626 4993.3621237948537 8418.4343082979321 1246.759706504643 3620.0674871429801 2476.4113754034042 1903.0118653327227 3413.4069156721234 3449.7188266515732 4494.338991202414 6392.0638285651803 9162.4893469661474 3610.1734852939844 3258.3864865973592 5695.8469658717513 6928.2665616050363 25728.9930806458 9581.1733541414142 3032.1572825759649 1840.5894103050232 5702.3770031481981 7243.9142589718103 10807.153321258724 5004.9529254585505 2589.8696886375546 4743.6202806830406 8710.3862610012293 1620.2581437453628 5812.990609370172 10967.292423635721 4061.4088124781847 5618.2016865685582 4102.2964823246002 3089.1883572041988 4024.6756874024868 2870.324848741293 3077.3665778934956 6128.3864633142948 4771.2464568316936 9946.143287435174 5248.755455583334 16079.308774024248 1023.9074176996946 8204.8279826715589 3179.6731828153133 12662.005137227476 24698.283617585897
leaf_count=145485 506 248255 49424 26549 133642 503 49140 143783 6676 48992 1118537 80116 53573 50150 38700 28785 17757 22957 1028 58486 136984 68858 88345 97973 47403 50727 32292 50982 76713 14955 49356 33586 222326 178985 43049 5224 715991 101858 182881 18827 37326 34500 57454 7510 40098 32740 115281 20614 21903 56427 91719 12172 37035 14166 21236 30245 29330 51823 66406 103425 28253 38004 66594 58550 322116 122203 34668 15288 33457 74913 135911 47835 23929 40273 55854 18272 46126 136578 39830 69958 30400 31064 42398 22829 16552 65655 34295 109436 47971 213740 11914 95077 31198 152204 316563
internal_value=0 -0.0344171 0.154205 0.0257253 -0.0660732 0.182843 -0.00116667 0.0264169 0.074954 0.0653051 -0.0812734 -0.0366231 0.153861 0.101355 0.092699 -0.0348956 0.128982 0.0457526 0.231725 0.0622256 -0.0209053 -0.064952 -0.0488593 -0.0145355 -0.00737586 0.00248881 0.15268 0.066019 0.177623 0.0208378 0.0740268 0.0163916 -0.071151 -0.0209179 0.102108 0.132087 -0.0901005 -0.0563317 -0.0446159 0.128781 0.0314275 0.163209 0.0451317 0.092109 0.210979 0.253874 -0.0281089 0.00528453 0.198488 0.0340194 0.0272055 0.0593518 0.033638 0.235988 0.0663494 0.0888056 0.112966 -0.015498 0.0607482 -0.00834233 0.201648 -0.0614052 -0.0405538 0.111288 -0.0647515 -0.082254 -0.0190526 0.117311 0.238482 0.0414428 -0.0772389 0.0743312 0.114339 0.152817 0.209906 -0.0068796 0.172011 -0.0379406 0.0790105 -0.0459195 0.173338 0.0750487 0.0322853 0.159011 0.270766 0.0185148 0.180603 0.0134866 0.0973801 -0.0951377 -0.0280456 -0.0179127 0.0781625 -0.0364953 -0.0717715
internal_weight=0 586797 125254 202353 384444 94737 130866 71991.2 71487.5 30517.3 253568 130875 59475.4 37543.6 19561.8 58874.6 29054.6 33943.9 35261.6 28836.7 38537 89002.4 84219.4 46656.1 38678 43154.5 15389.5 18718 30420.8 15225.9 19871.9 10955.5 72389.5 29143.9 13665 17671.7 164566 61920.9 25892.5 9395.61 12963.8 19108.3 10395.5 8322.51 18207.6 17054.1 22298.5 14379.9 11858.1 9534.14 13148.8 10166.2 8140.48 8283.37 3488.33 12653.5 9259.25 12925.6 14553.8 30005.7 11312.5 20337.6 12149.7 11746.6 36028.4 64340.8 11500.4 5410.82 8178.79 16183.2 54524.5 5706.79 7075.17 8412.44 8780.24 16994.2 9978.7 16612.9 5308.17 8876.59 9915.29 8161.78 11268.6 7613.95 8770.7 9475.43 9388.3 11892.6 5809.53 100225 8431.28 17367.3 9240.13 24157 35505.4
internal_count=8051677 7061579 990098 2174319 4887260 687603 1472581 771111 701738 302495 3298962 1588298 471302 349279 182882 701470 243968 352459 216301 286380 448023 1128491 1042528 545770 447797 484731 124612 186738 227334 165721 196976 119613 923055 343967 119356 152303 2170471 775165 319407 81456 139172 145508 108436 78302 118358 97943 267363 158835 78260 103830 142446 101426 86027 48651 36191 119929 82525 152082 147620 342285 81826 253447 146710 101599 455758 838194 136526 47580 47623 166451 700729 55345 62629 69778 56357 197257 77032 205436 52002 107962 76526 81214 117311 63102 49292 102981 68795 130050 53195 1332277 100259 198502 89684 289188 452474
cat_boundaries=0 4 8 13 17 21 26 30 35 40 45 50 55
cat_threshold=2164285452 540091713 139517953 755566612 2164260874 270337 5242881 17301521 576326688 268472322 36769028 3225723266 48 2172657674 8257 1477451777 554172420 2172694558 1611931720 809533569 688390173 2239787288 570762344 24577 150997012 2 639303968 2424340480 1124339456 3489968706 575278176 8425472 1084361028 6599522 32 2172657666 605163301 1179687 151584793 64 543032320 1350598656 10555216 2416222690 80 2172649480 540410945 1750081537 153681933 2 2432725064 118834241 8425472 16777232 2
is_linear=0
shrinkage=0.1


Tree=3
num_leaves=96
num_cat=11
split_feature=11 14 11 10 14 11 9 0 14 14 14 5 14 10 11 14 14 9 9 8 14 5 9 9 10 10 14 9 10 10 10 5 9 10 14 10 10 8 11 14 14 9 14 14 0 10 11 5 3 14 14 10 10 14 5 7 9 9 9 5 14 14 9 4 2 10 5 7 3 5 14 7 14 3 4 2 14 4 2 14 5 0 14 14 5 0 14 9 8 9 1 14 5 10 4
split_gain=280811 72889.2 37979.1 16467.6 12175.1 8810.98 8646.8 7666.65 6185.15 5166.01 4054.49 2679.29 2225.48 2587.88 2155.84 2032.88 1990.16 1919.37 1719.07 1642.65 1537.06 1189.61 1071.22 1069.84 1043.2 994.326 1763.98 960.907 929.995 899.036 837.293 810.19 765.356 717.623 664.748 621.697 596.996 577.658 574.839 530.271 527.254 526.522 508.586 474.849 468.69 460.896 457.222 446.373 436.27 428.772 411.88 403.594 391.632 389.73 377.306 372.096 360.485 355.464 350.075 347.566 308.901 298.793 296.695 291.124 338.57 289.76 281.79 277.83 286.208 272.828 254.598 247.729 240.893 229.98 222.087 293.046 219.695 217.692 337.55 216.102 232.235 214.641 208.359 198.067 195.913 195.421 193.822 190.561 188.152 187.866 185.132 185.009 181.18 174.503 174.301
threshold=0.20112359523773196 4.5000000000000009 0.40121951699256903 1.5000000000000002 2.5000000000000004 0.071796759963035597 0.50258100032806408 4.5000000000000009 1.5000000000000002 1.5000000000000002 2.5000000000000004 0 6.5000000000000009 3.5000000000000004 0.62605932354927074 13.500000000000002 3.5000000000000004 0.617883861064911 0.49738699197769171 11049.500000000002 1.5000000000000002 1 0.6421831250190736 0.65160736441612255 7.5000000000000009 1.5000000000000002 9.5000000000000018 0.60840657353401195 3.5000000000000004 1.5000000000000002 2.5000000000000004 2 0.33169975876808172 5.5000000000000009 1.5000000000000002 2.5000000000000004 4.5000000000000009 6404.5000000000009 0.073606811463832869 2.5000000000000004 7.5000000000000009 0.65014052391052257 6.5000000000000009 4.5000000000000009 4.5000000000000009 6.5000000000000009 0.8015151619911195 3 11.983333110809328 2.5000000000000004 1.5000000000000002 2.5000000000000004 2.5000000000000004 13.500000000000002 4 17752.500000000004 0.43752518296241766 0.5977931320667268 0.71905958652496349 5 16.500000000000004 1.5000000000000002 0.58446151018142711 16.955533981323246 68.500000000000014 10.500000000000002 6 102441.50000000001 12.016666889190676 7 1.0000000180025095e-35 147804.00000000003 6.5000000000000009 15.474937438964846 13.752777576446535 99.500000000000014 1.0000000180025095e-35 14.00500011444092 79.500000000000014 1.5000000000000002 8 4.5000000000000009 5.5000000000000009 1.5000000000000002 9 26.500000000000004 23.500000000000004 0.69530117511749279 102605.50000000001 0.74253442883491527 118.50000000000001 17.500000000000004 10 3.5000000000000004 16.005000114440922
decision_type=2 2 2 2 2 2 2 2 2 2 2 9 2 2 2 2 2 2 2 2 2 9 2 2 2 2 2 2 2 2 2 9 2 2 2 2 2 2 2 2 2 2 2 2 2 2 2 9 2 2 2 2 2 2 9 2 2 2 2 9 2 2 2 2 2 2 9 2 2 9 2 2 2 2 2 2 2 2 2 2 9 2 2 2 9 2 2 2 2 2 2 2 9 2 2
left_child=1 3 4 6 7 15 20 18 22 14 11 35 13 27 33 29 24 28 66 25 31 -13 63 39 48 56 36 44 50 37 57 -1 -22 47 69 61 72 -3 -23 -10 52 83 -18 65 -6 87 73 -4 -11 88 54 -40 -21 85 -9 86 -7 -12 -50 -33 93 -5 -32 64 84 92 -2 68 -29 94 -48 -51 -27 -16 75 -37 -49 78 -24 80 -30 -78 -58 -20 -8 -14 -17 -36 -25 -26 -71 -42 -15 -28 -19
right_child=2 5 9 10 12 19 8 17 23 16 30 21 53 43 46 55 42 34 41 40 32 38 77 49 89 26 60 67 79 -31 62 59 -34 -35 45 74 -38 -39 51 -41 91 -43 -44 -45 -46 -47 70 76 58 71 -52 -53 -54 -55 -56 -57 82 -59 -60 -61 -62 -63 -64 -65 -66 -67 -68 -69 -70 90 -72 -73 -74 -75 -76 -77 81 -79 -80 -81 -82 -83 -84 -85 -86 -87 -88 -89 -90 -91 -92 -93 -94 -95 -96
leaf_value=-0.056636221914929723 -0.051194225977312838 -0.080447074929187401 0.16228668238894767 0.088228842827429363 -0.02766303288147778 -0.077866537758197074 0.0010381759922528811 0.10765200137398229 -0.0066129918812763257 0.15147085490673742 -0.017877118800529234 -0.013565155554097586 -0.020365144169895346 0.085409406322331113 0.20324789111521785 -0.088842094105206423 0.075264880327329989 0.14503458590519225 0.051892991784350306 -0.022389194435359232 -0.075187207928515437 0.015706658703149395 0.070999127692909642 0.019130654885664934 0.15144124175187981 -0.018421526467464835 -0.062548708631008421 0.068875405998272118 0.15645079654170624 -0.047085911164086704 0.016056925436999232 0.020597783685213793 -0.045336401643587411 0.17653120554362503 0.078764480552885818 0.12404362884702579 0.013864665360643361 -0.059046509182582724 0.042950462487280489 -0.032098664349152282 -0.034469250812685467 0.080586565574296901 -0.0093949799510882198 0.044045759571402721 0.012394136364258471 0.14079030644933815 0.06189511074905818 -0.032038110384893854 0.093745828198741235 -0.010037600145441923 0.051824490913841219 0.073451884341061924 0.016907713608289625 -0.060541547465544014 0.065026134009011902 -0.078930310299719891 -0.044648668250252786 0.016132191555257355 0.13772249504321257 -0.0167397273668504 -0.079636744909804824 0.049341256787592699 0.047137571278955792 0.062199735233884536 0.0024288841925489964 0.11425616014590155 -0.00020573140488555107 0.076314256889496196 0.022791906120317007 0.11016805270842285 0.22669539931950819 0.036494400695872724 -0.042163634492957847 0.17906106775316119 0.13120046136362362 0.082749193837892143 0.10574395002160086 0.094312677173313153 0.023754506995831211 0.093930995226882363 0.11121822213860103 0.14026426314569609 -0.064080249270786135 0.01645830817947375 0.041977928449076801 0.015101738056228579 -0.097774640712806171 0.11043597263846971 0.068315490519733429 0.18543151355241666 0.13775862611803227 -0.062756196934602507 0.053230712074855108 -0.036952491374403686 0.1791572326751707
leaf_weight=4006.3683561310172 1530.5389837771654 51814.80362598598 7893.9991698414087 5227.3413968384266 4643.3499345481396 15094.725126363337 1412.420040845871 4362.9143995940685 12765.508738815784 2548.7204222530127 7219.7930495515466 3185.9923731610179 4501.4813790172338 4796.5767956674099 7922.2239177823067 45257.287595622241 3224.0200572758913 7250.2129356116056 3523.4479199424386 10303.251902535558 13214.383681230247 3611.2326754927635 7324.8393893688917 6621.4920459464192 5252.9215498119593 8141.2051613926888 8500.0974564403296 1664.8512181863189 1705.8652090281248 13596.092503346503 5565.4222627878189 3735.7321021780372 24539.558525972068 12299.537648692727 3844.9970771223307 2951.5836843550205 3609.1813551485538 16671.278402589262 7980.4837897494435 22649.016888588667 11798.214161761105 4538.7448174655437 909.84546422958374 4826.2297837808728 7874.5203675404191 2984.2475048452616 95.29729637503624 85.006336495280266 7132.1170683205128 11269.43426220119 5523.338336661458 9505.0174722597003 3364.1292093098164 1787.3164704814553 4255.7081611603498 20882.49817147851 7683.3474273011088 5351.0682198926806 2425.8464671373367 7447.7813059836626 8109.6551769599319 3176.4561978429556 6853.649821549654 2199.1723778694868 5033.5574963018298 2203.661445453763 3667.0371927022934 1649.7608584091067 7074.467547737062 4090.1462423279881 5747.1491631120443 1273.4095505923033 8995.4876605644822 7803.7386215850711 3369.6046642512083 4113.5796589925885 2613.5248317420483 2538.2839431911707 1905.7452599555254 4106.8071009665728 5068.5269378572702 5795.0874825268984 19581.802558876574 2856.1357069388032 7040.471502751112 2372.262419141829 52435.996961660683 3755.0715514943004 881.27704171091318 2355.0982465296984 5998.8602149635553 2875.7596905604005 3005.3791617006063 3878.9604341834784 1886.4832254201174
leaf_count=51968 19884 720057 48800 42243 56609 208224 14929 35205 147317 18422 83898 35390 52118 42118 40636 645664 28842 48053 34939 124148 178269 37858 65199 70951 33544 97453 114375 17031 11946 178994 60518 40351 312389 70859 31955 23751 40771 221824 76911 277141 150049 42762 10234 48900 83986 21663 873 615 54526 132150 51938 87462 37301 22353 36704 292798 99480 58596 17114 85443 109877 31200 69312 22371 51710 17532 42981 16374 73581 29755 27252 13853 111940 41026 27490 34168 18930 22925 17472 32157 37429 37381 261201 32670 70437 27386 754310 29504 8903 14463 41859 37490 26714 51228 12295
internal_value=0 -0.0397895 0.101997 0.00671306 0.0666039 -0.0701328 -0.0134056 0.0926524 0.00675376 0.158045 0.0468428 0.0654164 0.0267737 0.0372654 0.176234 -0.0826722 0.119717 0.110474 0.0320173 -0.0476544 -0.0449769 0.0433995 0.0455727 -0.0124628 0.132945 -0.054708 -0.0436539 0.0161941 0.0900529 -0.0705746 0.0147933 -0.0181146 -0.0557846 0.158275 0.127615 0.0937231 -0.0230993 -0.0752376 0.0520046 -0.0229121 -0.0268494 0.0545515 0.0566316 0.0698089 -0.00246458 0.107489 0.20012 0.144572 0.11471 0.00599795 0.0731426 0.0595309 -0.0127165 -0.0189417 0.0868045 -0.0910466 -0.0654684 -0.0034003 0.104907 -0.00426028 -0.0644664 0.0735302 0.0332092 0.0284627 0.0229613 0.0822358 -0.0153193 0.038676 0.0315709 0.138695 0.224007 -0.00531345 -0.0308844 0.191246 0.110076 0.100001 0.127767 0.068377 0.061245 0.112031 0.123003 0.129535 -0.0586044 0.0360289 0.0351881 -0.00812483 -0.0936366 0.0944129 0.0249079 0.161963 0.126448 -0.0400128 0.0731916 -0.0545282 0.151914
internal_weight=0 516563 191453 203970 117349 312594 135858 70949.1 82914.6 74104.1 68111.2 43121.3 46399.9 37738.8 50255.6 200658 23848.6 54833.2 16115.9 111936 52943.8 24282.7 27454.5 55460.1 19714.7 83594.5 41234.6 22906.9 25023.2 82082.2 24989.9 15189.9 37753.9 28687.2 29810 18838.6 20745.9 68486.1 21096.7 35414.5 28341.4 10918.3 4133.87 14831.8 12517.9 10584.3 21568.4 16387.6 12106.7 20045.6 14142 17485.5 13667.4 8661.06 8618.62 118576 42359.9 12570.9 9557.96 11183.5 20488.7 8403.8 12419.1 15685.6 13486.4 10005.6 5197.58 10389.1 8739.32 19225.7 5842.45 12542.8 17136.7 15726 10434.8 7065.16 8493.62 11768.9 9230.58 10881.2 6774.39 8408.61 27265.1 6379.58 8452.89 6873.74 97693.3 7600.07 7502.77 7608.02 10089 14674 7801.96 12379.1 9136.7
internal_count=8051677 6509759 1541918 2252575 1078401 4257184 1583778 593699 915358 463517 668797 396473 484702 382845 286372 2813647 177145 420463 173236 1443537 668420 237621 265043 650315 138069 1094549 525644 247581 205379 1120875 272324 177762 490658 176585 215084 158852 250164 941881 202231 424458 348988 110371 39076 135264 140595 83122 109787 105726 90062 225857 123847 164373 161449 101857 71909 1692772 568905 142494 71640 125794 275480 73443 129830 159447 137076 86364 62865 106986 90612 131962 28125 146003 209393 81662 85409 57919 56926 105596 82671 81532 49375 56311 360681 67609 85366 79504 1399974 61459 79854 48007 71614 187539 68832 165603 60348
cat_boundaries=0 4 9 14 18 22 27 31 35 40 45 49
cat_threshold=2172952842 538190593 944775297 688455708 576324640 2424311824 18947328 3225723330 48 576326688 276860928 111152448 2151981410 48 2164285448 537272385 676372481 17367057 2239774728 588587113 4775945 186124308 427847690 84100448 5808256 688392209 1 643501152 36864 1117848836 3502547202 2164260866 1610678849 1074790401 19398660 2172649736 537207144 8192 51970064 2 1144652292 136839186 2198087684 343969824 45 765984768 6504977 156789768 168367105
is_linear=0
shrinkage=0.1


Tree=4
num_leaves=96
num_cat=11
split_feature=14 11 11 10 9 11 14 11 14 9 10 14 14 14 10 11 9 8 9 8 8 10 5 11 5 14 14 9 14 10 10 10 0 14 14 9 5 14 7 14 5 10 10 5 5 7 10 7 9 9 14 11 11 11 8 7 9 4 2 3 0 9 3 14 4 10 5 14 0 10 9 10 0 3 2 4 2 2 3 10 14 14 5 7 5 9 11 5 9 11 14 5 14 11 10
split_gain=220692 73823.8 24790.7 15133.9 8405.62 7791.23 5600.64 4443.93 4121.1 2968.02 2332.13 2071.86 1717.72 1662.34 1248.1 1219.61 1189.52 1161.44 1140.33 1109.84 1067.37 1065.78 1008 986.18 983.614 798.27 771.997 699.557 679.552 635.524 630.034 521.974 471.047 837.767 467.33 445.305 443.118 424.071 418.871 415.723 410.725 392.775 389.386 349.309 348.519 345.342 340.021 337.583 307.628 301.228 298.32 293.519 280.409 279.371 272.829 270.589 265.407 252.231 367.481 250.711 250.374 243.543 235.318 234.562 233.08 232.733 232.028 220.135 219.404 214.911 208.215 195.574 193.177 189.721 185.544 214.03 195.861 183.483 181.371 179.768 176.96 176.74 173.852 173.631 172.037 169.787 169.731 169.026 168.493 167.9 167.807 163.882 163.483 161.023 160.015
threshold=3.5000000000000004 0.25126262009143835 0.11167800426483156 1.5000000000000002 0.4772265106439591 0.50280898809432995 9.5000000000000018 0.20112359523773196 1.5000000000000002 0.57657045125961315 1.5000000000000002 1.5000000000000002 6.5000000000000009 1.5000000000000002 5.5000000000000009 0.047905908897519119 0.62809219956398021 2871.0000000000005 0.28342911601066595 6114.5000000000009 24834.000000000004 7.5000000000000009 0 0.75140449404716503 1 1.5000000000000002 1.5000000000000002 0.55412867665290844 10.500000000000002 2.5000000000000004 3.5000000000000004 2.5000000000000004 9.5000000000000018 6.5000000000000009 1.5000000000000002 0.37691104412078863 2 2.5000000000000004 17752.500000000004 11.500000000000002 3 2.5000000000000004 2.5000000000000004 4 5 17752.500000000004 2.5000000000000004 65637.500000000015 0.73780459165573131 0.75444394350051891 1.0000000180025095e-35 0.17677696049213412 0.10733487084507944 0.16760300099849704 5875.0000000000009 72837.500000000015 0.62578299641609203 16.214985847473148 65.500000000000014 9.639444828033449 7.5000000000000009 0.41630548238754278 16.644957542419437 5.5000000000000009 13.58397436141968 4.5000000000000009 6 21.500000000000004 7.5000000000000009 4.5000000000000009 0.43165880441665655 2.5000000000000004 26.500000000000004 13.113247871398928 118.50000000000001 13.503012180328371 43.500000000000007 79.500000000000014 5.2087116241455087 2.5000000000000004 1.0000000180025095e-35 11.500000000000002 7 322066.50000000006 8 0.69717261195182811 0.1366749703884125 9 0.69530117511749279 0.31296642124652868 5.5000000000000009 10 1.0000000180025095e-35 0.83469945192337047 3.5000000000000004
decision_type=2 2 2 2 2 2 2 2 2 2 2 2 2 2 2 2 2 2 2 2 2 2 9 2 9 2 2 2 2 2 2 2 2 2 2 2 9 2 2 2 9 2 2 9 9 2 2 2 2 2 2 2 2 2 2 2 2 2 2 2 2 2 2 2 2 2 9 2 2 2 2 2 2 2 2 2 2 2 2 2 2 2 9 2 9 2 2 9 2 2 2 9 2 2 2
left_child=1 3 6 4 18 11 10 17 16 22 19 24 21 40 27 45 57 32 87 35 37 54 52 34 46 44 36 71 30 88 47 70 61 69 43 -2 79 56 -17 72 78 -28 90 -7 -20 67 -3 -19 74 62 -33 91 -5 -38 82 -21 -10 58 -6 -36 -22 -4 -29 -37 77 -45 -16 -8 73 -34 -26 -13 -14 -39 75 76 -18 -42 -11 -24 -25 94 -9 92 -46 -66 -43 -1 -15 -52 -12 -31 -48 -82 -35
right_child=2 5 7 9 8 23 15 12 20 13 42 14 39 29 66 38 48 28 25 55 60 -23 26 80 31 -27 41 49 -30 51 -32 50 33 81 59 63 53 68 -40 -41 64 86 -44 65 84 -47 83 -49 -50 -51 89 -53 -54 -55 -56 -57 -58 -59 -60 -61 -62 -63 -64 -65 85 -67 -68 -69 -70 -71 -72 -73 -74 -75 -76 -77 -78 -79 -80 -81 93 -83 -84 -85 -86 -87 -88 -89 -90 -91 -92 -93 -94 -95 -96
leaf_value=-0.010963996221692472 -0.081657556893318717 0.10699578936970169 -0.067503771896782708 -0.045648627946864535 0.02998192592932751 0.16015134526407027 -0.086228487762262954 -0.017215061047779041 -0.0075909118430806423 0.063224149435333346 -0.021636745186345417 0.025379516605678765 -0.015692067825519327 0.024364648427101745 0.12009445574548357 -0.075973375599812709 0.063323347347226264 -0.021409358975666259 -0.037399282718694353 -0.047279083861638489 0.03972780976978886 0.073048273423258439 0.064087178266705611 0.052023600229934623 0.0330864951363379 -0.041306878510955811 0.0066225596900209294 0.086832929515564566 -0.045516090407362472 0.071183678819931262 0.022310665415386358 -0.05616101458983163 -0.011058468141665372 -0.047446884988756821 0.14935269270068935 -0.052350703177039097 0.02943054448653807 0.017088981006598055 -0.055777815294428469 -0.05002195551015505 0.083020265090469073 0.020429485494602918 -0.008641882096244417 0.1176701880743416 0.041690882786066336 -0.076688748309065316 -0.016819032750472206 0.00821098474361758 0.083806218772641244 0.10576840549478461 0.088310057971009659 0.082178713749037527 0.0058526697381653331 0.06590175241294248 0.036284322531378074 -0.018705078944776299 0.015795296167593221 0.050491045293850859 -0.0018655626453420123 0.1109935174389227 0.0091590534852951846 -0.042583762488809719 0.060848456178863836 -0.068255520728912486 0.085747604446442943 0.14584650521543346 0.091063700226715866 -0.096347717400728797 -0.030728320441493435 0.03234925663260324 0.080360044314414625 0.057999679038813361 0.019762922410499054 -0.016564915452549733 0.020970087704779206 0.084805569346704579 0.033991961904033245 0.051193668867919276 0.10718617126608897 0.10931044706410949 0.16698481260481587 -0.064578826809016929 0.017162804751578314 0.16690864729965338 -0.0024800269363824245 0.13962558664907732 0.051256834150420906 -0.069115461584939919 0.052167650237268361 0.11429893142226087 -0.044308468750226336 0.041710578073074489 0.13004985848293116 0.1917657323852065 -0.012315972477700469
leaf_weight=543.78725539147854 17642.653883367777 7596.1562371626496 6372.3683595880866 1644.6215554922819 11384.680560745299 12813.125276230276 37922.492806732655 1868.1222297623754 14176.560461841524 1030.7820715755224 5359.0891159325838 3698.3384411931038 4417.0429712384939 6985.948582559824 6420.2520958334208 44451.087198622525 5257.84921117872 17930.711075529456 2896.6072446033359 17677.136195912957 5947.4170756042004 5420.7378543615341 1731.521897867322 115.17117389291525 1115.3748887479305 18531.942164517939 7455.6630848273635 6133.5826160982251 5692.725154094398 3185.2883223742247 5624.8602476418018 111.71669188141823 5730.8097485303879 4355.6251285076141 2317.6299320906401 14353.620001502335 5081.822626516223 2102.3873791992664 13355.629079915583 2658.2541288807988 3255.4598789066076 2954.3648227900267 8959.5263972431421 4666.4528225511312 991.12231658399105 17808.362046003342 76.120717518031597 4898.9437325000763 4289.2470570653677 3261.2771860584617 3293.0815663486719 6178.2276559323072 2959.8579593598843 3579.8306310996413 7013.1843551620841 4078.817014887929 7378.5980429202318 3200.7387852221727 5314.4336195215583 6433.8958097100258 4876.1309203878045 10197.712308131158 8071.580003850162 26194.333029851317 3312.7844854220748 7884.7237981334329 5693.1399120986462 49635.864405192435 9579.5932212918997 1423.9885181337595 5657.802919395268 3653.8229917883873 2356.6403235271573 8242.4506295919418 1592.9305727034807 2282.6983873769641 4015.0319958776236 4083.619715154171 10477.241527155042 1785.2921262606978 6740.7373978197575 3711.6281640231609 6810.968542791903 1328.5107621103525 7390.9520414546132 710.31430581212044 4516.3494381681085 10389.676992990077 3168.2370175793767 10141.09560200572 8353.4879692718387 5005.8431131616235 17460.73899910599 4291.4964326024055 1846.0324435830116
leaf_count=6917 263915 48748 91605 19920 113114 63137 583902 19134 167197 7595 67147 33677 51428 67876 42206 662250 45836 224778 36951 236759 61732 46136 14448 997 9088 242393 81559 47502 76588 27687 61373 764 68003 56961 12769 198119 47934 24441 187300 34280 24887 31177 111953 24556 10363 269015 480 56384 33403 23534 22707 50609 31196 29927 69284 52550 78401 31756 55162 38877 53492 135923 64932 376435 25868 39311 38455 777358 116875 14574 40458 29334 26383 96047 14505 19860 36157 32655 73226 13714 31060 51191 69919 7314 83109 5221 41410 144870 29541 63573 110026 45288 101906 18709 22591
internal_value=0 0.0565692 -0.0555973 0.019924 -0.00101132 0.11609 -0.0714679 -0.0126982 0.0161066 0.0544315 -0.0531633 0.0980169 0.018971 0.0702756 0.0803111 -0.0829795 0.0414838 -0.0269688 -0.0386723 -0.0611914 -0.00200944 0.0348211 0.0307503 0.149515 0.111995 -0.0285408 0.0380907 0.0674681 -0.013977 0.0521896 -0.00766717 0.0951947 -0.0401572 -0.0284975 0.141077 -0.0683957 0.0567885 -0.00930671 -0.0713074 -0.0165088 0.0896692 0.0228606 -0.0248548 0.147952 -0.00756488 -0.0893831 0.124813 -0.0150532 0.0605513 0.0783606 0.106575 0.0657221 -0.0125153 0.0444526 0.021616 -0.041922 0.000414477 0.0247755 0.0198466 0.121152 0.0259562 -0.0521673 0.0720682 -0.0626254 0.0758488 0.135263 0.106625 -0.091965 -0.0198235 -0.00241922 0.0725753 0.0415908 -0.00335688 -0.00972541 0.0529652 0.0573757 0.0506233 0.0653113 0.103159 0.0867977 0.175337 -0.0473192 0.00976312 0.132053 0.00278633 0.0952602 0.0390659 -0.0662965 0.0330395 0.107928 -0.035448 0.0533096 0.129412 0.176624 -0.0369896
internal_weight=0 338464 364122 209488 130385 128976 265792 98330.4 89640.7 79103.1 102619 83712.6 30545 47393.7 36932 163173 37337.6 67785.4 40744.1 79946.6 52303.1 21113 31709.3 45263.2 46780.6 29810.6 27104.8 24818.6 34147.2 24523.5 28454.5 20319.1 33638.2 17068.1 34115.8 58190.6 12178.5 41479.6 57806.7 9431.94 22870.2 14926.4 22672.1 25364.3 11278.7 105367 26461.5 22829.7 17437.8 17466.4 13545.9 14369.4 4604.48 8661.65 15692.3 21756 21555.2 19899.9 16699.1 8751.53 10823.5 16570.1 14205.2 40548 11362.2 12551.2 12113.4 87558.4 19924.4 7154.8 6773.18 7352.16 6773.68 10344.8 13148.5 11555.6 9272.88 7339.08 11508 3516.81 11147.4 9913.29 8679.09 18865.4 8382.07 4023.1 7470.71 10933.5 10154.2 13434.2 13712.6 8191.13 17536.9 11032.2 6201.66
internal_count=8051677 2978413 5073264 2174319 1472581 804094 3896729 1176535 947978 701738 1416904 574678 316564 390453 279640 2479825 349793 859971 524603 1127778 598185 204473 311285 229416 295038 372816 260169 198979 419123 221001 342535 136590 440848 213320 178650 838469 106023 482961 849550 112091 169452 154146 289126 127004 130423 1630275 158448 281162 149761 135968 87044 123584 51116 77861 158337 289309 245598 200032 168276 51646 115224 227528 112434 574554 88631 63867 80661 1361260 237363 82577 49546 63011 77811 120488 116358 101853 81993 57542 80821 28162 50766 130743 89053 109700 93472 31089 72587 151787 97417 86280 177173 72975 102386 49769 79552
cat_boundaries=0 5 9 13 17 21 26 31 36 40 45 50
cat_threshold=5899296 276824064 37162324 1346675138 80 2164261130 3482977 1213243393 1023936533 2231411018 35087392 272687241 17303580 2240020762 537003617 2014339079 554172436 2172649472 1048641 135274505 556271640 643500032 2424340608 1126239489 3288645824 32 16859152 7421953 676339713 154730497 1 327420328 1199833218 271187972 1900027906 96 16781378 83776 2147524608 16777232 268718210 1663257408 810844176 687865873 1 92536840 1048833 273678340 17301517 3
is_linear=0
shrinkage=0.1


Tree=5
num_leaves=96
num_cat=10
split_feature=14 11 11 9 10 11 14 11 14 10 10 10 14 14 14 9 9 8 14 11 9 5 10 10 14 9 10 5 0 14 9 14 5 11 8 11 8 9 14 10 0 11 11 5 9 8 11 10 14 7 5 9 14 5 0 14 9 9 5 14 14 0 9 10 5 11 14 3 11 10 2 4 2 9 11 10 8 14 3 14 1 2 10 11 9 5 14 14 14 14 0 3 5 14 10
split_gain=180518 54139.7 22836.2 12007.6 6379.08 5955 4753.66 4508.23 3262.48 2469.72 1988.74 1866.66 1557.45 1488.25 1396.85 1257.08 1057.06 1002.25 932.816 931.35 888.337 821.934 777.85 738.447 715.176 670.43 627.51 597.485 550.969 528.8 528.234 499.221 482.437 429.906 426.2 410.499 345.801 337.095 322.329 313.545 306.913 303.922 296.666 296.122 295.34 283.629 282.763 276.956 276.907 272.127 265.439 264.434 260.723 258.591 256.995 231.497 227.635 226.332 209.369 196.555 194.815 190.953 187.219 185.304 182.017 181.326 178.474 177.043 176.678 170.541 166.973 195.078 166.297 166.275 166.117 164.842 159.92 158.596 157.008 155.432 155.396 210.645 152.028 151.151 150.004 149.517 149.177 148.982 147.768 145.196 141.605 141.555 141.533 141.269 139.626
threshold=3.5000000000000004 0.25126262009143835 0.10050505027174951 0.47968290746212011 1.5000000000000002 0.60172414779663097 10.500000000000002 0.20112359523773196 1.5000000000000002 1.5000000000000002 5.5000000000000009 1.5000000000000002 1.5000000000000002 1.5000000000000002 5.5000000000000009 0.54942232370376598 0.28342911601066595 3932.5000000000005 11.500000000000002 0.043717153370380409 0.65160736441612255 0 3.5000000000000004 4.5000000000000009 1.5000000000000002 0.56411543488502514 4.5000000000000009 1 9.5000000000000018 6.5000000000000009 0.51615241169929515 11.500000000000002 2 0.42928571999073034 24834.000000000004 0.8015151619911195 10462.000000000002 0.38111481070518499 2.5000000000000004 2.5000000000000004 6.5000000000000009 0.3551971316337586 0.12024096399545671 3 0.50053632259368908 32758.000000000004 0.41223156452178961 6.5000000000000009 5.5000000000000009 15045.000000000002 4 0.6151426136493684 6.5000000000000009 5 9.5000000000000018 6.5000000000000009 0.28342911601066595 0.72243767976760875 6 5.5000000000000009 1.5000000000000002 9.5000000000000018 0.80585938692092907 14.500000000000002 7 0.060790836811065681 2.5000000000000004 16.644957542419437 0.071796759963035597 12.500000000000002 114.50000000000001 11.462476253509523 37.500000000000007 0.65551853179931652 0.10733487084507944 11.500000000000002 102605.50000000001 12.500000000000002 11.622844696044924 23.500000000000004 182.50000000000003 79.500000000000014 2.5000000000000004 0.15821565687656405 0.75444394350051891 8 1.0000000180025095e-35 5.5000000000000009 19.500000000000004 1.0000000180025095e-35 8.5000000000000018 12.173163414001467 9 1.5000000000000002 4.5000000000000009
decision_type=2 2 2 2 2 2 2 2 2 2 2 2 2 2 2 2 2 2 2 2 2 9 2 2 2 2 2 9 2 2 2 2 9 2 2 2 2 2 2 2 2 2 2 9 2 2 2 2 2 2 9 2 2 9 2 2 2 2 9 2 2 2 2 2 9 2 2 2 2 2 2 2 2 2 2 2 2 2 2 2 2 2 2 2 2 9 2 2 2 2 2 2 9 2 2
left_child=1 3 6 9 8 10 11 15 21 16 13 17 27 25 23 28 64 37 22 49 54 57 34 78 43 53 38 68 56 82 -15 47 74 60 48 50 -21 -2 65 -34 76 -27 -29 -18 -13 87 84 -16 61 79 -7 70 -46 -3 66 -39 -4 -5 -41 -24 -12 -17 -43 93 -1 -14 -10 -48 -6 -25 71 72 -23 -40 -11 -52 91 94 -9 -8 -44 -82 -30 -60 -32 -67 -55 -19 -20 -70 -26 -22 -28 -35 -31
right_child=2 5 7 4 12 35 19 14 20 32 33 44 26 30 31 18 24 45 88 36 40 51 59 69 90 41 92 42 29 77 46 -33 39 63 -36 -37 -38 55 73 58 -42 62 80 -45 52 -47 67 -49 -50 -51 75 -53 -54 86 -56 -57 -58 -59 83 -61 -62 -63 -64 -65 -66 85 -68 -69 89 -71 -72 -73 -74 -75 -76 -77 -78 -79 -80 -81 81 -83 -84 -85 -86 -87 -88 -89 -90 -91 -92 -93 -94 -95 -96
leaf_value=-0.0091119902691866473 -0.080307471170674383 0.018252780444429614 -0.077645140711268892 0.046731138385029285 0.05317910085311716 0.14122272475049011 -0.086249088965594425 0.042789913843473415 0.0042662649187054221 -0.046060657589418741 0.10373919656363584 -0.043657781566995679 0.010106364738594546 0.031701041309784302 -0.011102797647484322 -0.023064298531260855 -0.032544355708532237 -0.038002982614694862 -0.040447044137104197 -0.076290938969392486 0.054840018366567302 0.026247851664922134 0.036652890191816334 0.04912882856150419 -0.030153779585565178 0.081750467806470439 0.075516900866540837 0.040408312058467281 -0.02235326936713232 -0.04275031285781955 0.05273981731957883 -0.047182562124343803 0.0066676852559668411 0.11743574814294876 -1.0310919252660718e-05 0.1576256733885934 -0.05679887722472704 -0.053971338507697975 0.010198039203310685 0.077870358336350184 0.0034466568625047909 0.1016124056930696 0.05543418471043491 0.0035032511510347756 -0.0051277002743676733 -0.027421595139610195 0.0991846448835359 0.021374382179805966 -0.037596194986188179 -0.077160805129797116 0.11252410014546024 0.037950566349922804 -0.032665675728054337 -0.04444368192120756 -0.022869399672716614 -0.070712608837552607 -0.048976997621961352 0.073683950218819766 0.010572302555425885 0.0041081999557925049 0.084424520504942827 0.0047905005400440013 0.13759648828711851 0.1313784944677262 -0.066534730029188485 0.056069220201494831 -0.014439817802537232 0.068839503042376654 -0.078315025349599485 0.082471123474076549 -0.0090552655795268101 0.038601777697391516 -0.0023469563546712697 0.035401087732318835 -0.0030267239796008308 0.1389418591310877 0.061759030583237923 -0.06460410103494417 0.010039229627800808 -0.095747618094285183 0.13080309695796552 0.07191423466438128 0.0074953648368428875 0.049097019931333995 0.081009394619780836 0.034331355648744018 0.074366335664060576 -0.056981912638405678 -0.070963838632304779 0.091905291436115255 -0.047848846866386893 0.017364599339375255 0.049749279212787545 0.095380749140013765 -0.0037971305387874393
leaf_weight=602.43232737481594 17352.864622309804 969.29107135534286 3390.4198703914881 9851.1452499851584 1363.9271852374077 12162.231540039182 30988.653969682753 1814.8266112580895 10443.82138466835 1417.4397105425596 11501.987283319235 7074.4135607108474 1576.8585115522146 5754.9852465391159 6538.1037165373564 8994.1053201928735 3139.2267985492945 5991.7695669159293 4908.5528915524483 39258.491909831762 1206.8696884587407 4074.4588064327836 3099.6118731349707 6054.2793721184134 9667.2636368349195 8398.0779944881797 4588.4086352139711 5771.6773921996355 3506.6852339804173 5254.8596690520644 11966.902258217335 2552.0604493469 6045.1626048386097 7877.0625201016665 9180.68908534199 7000.9887985736132 11848.295250225812 15114.57270065695 7021.7070403918624 1144.0108898803592 9910.7198945507407 17060.727504432201 5858.5196953639388 8244.0013213381171 7071.2706627175212 6846.6822358816862 3137.0728854238987 4388.0154234170914 10364.721694618464 16249.386327818036 9260.1434157043695 9470.2682199329138 6691.525341540575 106.81228544563055 12972.548072308302 18212.55774481222 15129.51884893328 4556.7066604718566 2090.6643849462271 4624.496986977756 9564.7262687981129 3388.198292568326 1579.7485137283802 5469.9468594044447 9739.3114319369197 6969.7474733218551 9969.0356051325798 4966.5738928243518 50.324339814484119 2054.6536224111915 2179.001285508275 4157.4643469154835 4060.8041486740112 4173.6389432027936 2443.0263625904918 3170.7261549681425 1287.4544441998005 2766.3707031309605 7567.7693041041493 38795.64594976604 668.11764592677355 6685.3133120313287 3323.7268263921142 1985.7579281330109 2226.170434564352 6084.5546585842967 9977.2508662194014 13355.075463436544 2344.6683293282986 11811.876908428967 8497.8895485773683 6114.8944285959005 4399.8195813000202 4600.4060891866684 1115.545208491385
leaf_count=7798 279079 6866 52505 85914 10233 56066 518440 18131 120881 17622 64091 96442 15745 47390 74070 118156 40663 83511 69259 630535 12299 40155 31028 51399 129092 51552 35523 49175 43301 71408 94115 34313 61586 39067 108609 29978 176594 222812 70804 9617 107282 96075 43473 91635 89758 93042 20386 46232 139105 265367 44426 82776 92238 801 158824 281514 216900 33803 20953 54085 60756 40334 8115 27578 144084 60355 120216 33813 346 15389 22521 41440 41539 39153 25689 14608 11573 40443 76998 661692 4790 48646 36659 17106 15619 56701 65834 196002 33821 77942 116660 63284 36225 26954 13769
internal_value=0 0.0491206 -0.0527164 0.0175116 0.0315774 0.098191 -0.0704553 -0.0156397 0.0142225 -0.0226998 0.0867528 -0.0536003 0.0549476 0.0761911 0.0168328 -0.0279955 -0.0357467 -0.0607963 -0.0173392 -0.0824643 -0.00211984 0.0363413 -0.0113077 0.0354755 -0.0261162 0.0890634 0.0402853 0.0707957 -0.042489 -0.0288764 0.0587115 -0.007361 0.0117073 0.104659 -0.0181967 0.136262 -0.071772 -0.0690051 0.0323651 0.0221512 0.0154449 0.0975458 0.0592908 -0.00646334 -0.0270524 -0.0449138 0.0656832 0.00194029 -0.0255368 -0.0888158 0.13018 0.0249487 -0.0185168 0.068314 -0.0118635 -0.0631201 -0.0542252 0.0552171 0.0401233 0.0171681 0.0949699 -0.0154423 0.104662 0.116032 -0.0632629 0.0421374 -0.00486923 0.0805867 0.0871981 0.0575771 0.0164576 0.0209799 0.0119744 0.0195938 -0.0187788 0.119167 0.0292569 -0.0446111 0.016374 -0.0915297 0.0675845 0.0772648 -0.00782871 0.0292671 0.0571739 0.0460065 0.0730355 -0.0511041 -0.0503119 0.0911831 -0.0384318 0.0235418 0.0630428 0.109304 -0.0359291
internal_weight=0 349048 347213 212296 157280 136752 234851 112362 90255.2 55016.2 105158 97710.7 67024.5 66143.6 30969.7 81392.2 39890.1 76873.5 46905 137140 51905.3 38349.8 39651.8 17491.5 29548.4 38091.9 34814.7 32209.8 34487.1 15967.2 28051.7 13478.2 15126.1 39014.1 31927.7 31594.1 51106.8 50680 25826.5 11265.6 18519.9 27038.6 18983.6 11383.2 20837.2 26193.5 22296.7 10926.1 22747 86033.7 24593.1 23942 13762.8 11053.4 33385.4 33327.1 18519.9 14407.9 5220.43 7724.11 21066.7 12382.3 18640.5 17947.4 10341.7 14631.2 20412.9 8103.65 13226.1 8108.93 14471.7 12292.7 8135.26 11195.3 3860.47 12430.9 8609.22 9136.78 9382.6 69784.3 13212 7353.43 6830.41 4076.42 14193.1 13054.3 10084.1 19346.8 7253.22 11862.2 18165.2 7321.76 8988.23 12477.5 6370.4
internal_count=8051153 2978213 5072940 2174123 1491618 804090 3687026 1385914 942507 682505 659012 1434398 549111 440566 316532 1069382 529932 1155960 594397 2252628 594359 348148 491317 161917 378050 229243 314506 234605 474985 205580 211323 154615 152573 218446 406204 145078 807129 783405 242758 109262 194438 155742 146084 132298 278438 372555 163933 120302 297595 1445499 115100 228431 181996 73501 399921 504326 269405 119717 47676 85113 124847 158490 104190 93599 151882 132801 241097 54199 88521 66788 145655 123134 81694 109957 43311 59034 87156 125620 95129 1180132 96909 53436 79960 38059 109734 117056 66635 279513 103080 78288 245752 75583 71748 66021 85177
cat_boundaries=0 4 8 13 18 22 27 31 36 41 46
cat_threshold=2172920066 1181445 5242883 151519256 2240061722 537209889 1078984839 554172444 2153448576 2415951888 11863380 1078211010 16 576391168 2424344576 1126239489 3290726592 8 2164260864 3670081 1209016329 538509320 575276032 1342214288 137693008 3489923522 16 285216842 2910376 8192 151062545 411324418 1631011648 273711120 687933457 1 2172649476 708062209 676347905 153683993 11 2239758344 65825 139501568 725155868 3
is_linear=0
shrinkage=0.1


Tree=6
num_leaves=96
num_cat=17
split_feature=14 10 13 9 13 14 14 13 10 10 13 5 13 13 14 8 14 8 13 9 5 10 5 14 0 14 14 0 10 5 14 10 9 0 9 4 2 9 7 5 10 14 10 8 9 14 13 9 8 14 14 3 3 5 2 13 7 14 5 0 0 5 14 4 14 5 13 5 7 4 2 14 0 5 14 5 5 5 5 14 10 9 5 14 10 3 10 10 5 8 8 10 14 14 9
split_gain=148366 41157.9 20985.1 8877.53 6876.66 4676.62 4276.72 3739.13 1897.42 1820.39 1583.9 1465.52 1346.06 1178.24 1141.01 1132.09 1050.29 1017.48 786.306 767.017 686.307 669.269 665.175 612.666 584.251 1021.83 485.15 471.309 461.571 415.237 411.737 394.087 371.21 352.078 349.292 335.638 338.923 333.038 330.737 329.296 315.245 310.795 310.166 308.168 307.824 293.894 292.269 273.208 271.171 261.699 259.984 257.84 255.003 242.558 234.941 233.564 226.821 219.212 214.202 213.136 201.696 197.837 196.335 195.986 195.354 183.158 180.441 177.41 177.326 175.084 211.421 172.491 168.22 163.179 162.502 162.135 161.345 161.094 156.964 151.325 149.595 149.388 147.87 146.56 145.02 144.152 143.724 142.966 141.387 136.407 136.102 133.284 130.651 129.732 126.694
threshold=3.5000000000000004 2.5000000000000004 0.10050505027174951 0.4772265106439591 0.42928571999073034 11.500000000000002 1.5000000000000002 0.20112359523773196 1.5000000000000002 1.5000000000000002 0.19074371457099917 0 0.22163742780685428 0.66969698667526256 6.5000000000000009 6404.5000000000009 1.5000000000000002 3932.5000000000005 0.040202019736170776 0.6151426136493684 1 4.5000000000000009 2 1.5000000000000002 9.5000000000000018 7.5000000000000009 6.5000000000000009 9.5000000000000018 1.5000000000000002 3 1.5000000000000002 1.5000000000000002 0.72243767976760875 9.5000000000000018 0.28342911601066595 11.572478771209719 78.500000000000014 0.38886611163616186 43038.000000000007 4 2.5000000000000004 13.500000000000002 2.5000000000000004 102605.50000000001 0.25080399215221411 6.5000000000000009 0.083771932870149626 0.59030777215957653 32758.000000000004 2.5000000000000004 1.0000000180025095e-35 8.0322918891906756 16.447222709655765 5 169.50000000000003 0.39159812033176428 18250.000000000004 16.500000000000004 6 7.5000000000000009 5.5000000000000009 7 1.0000000180025095e-35 19.890872955322269 16.500000000000004 8 0.83469945192337047 9 147804.00000000003 13.423659324645998 93.500000000000014 6.5000000000000009 36.500000000000007 10 5.5000000000000009 11 12 13 14 5.5000000000000009 6.5000000000000009 0.37276268005371099 15 -1.0000000180025095e-35 10.500000000000002 17.575187683105472 7.5000000000000009 1.5000000000000002 16 110382.50000000001 1247.5000000000002 6.5000000000000009 23.500000000000004 6.5000000000000009 0.6936996877193452
decision_type=2 2 2 2 2 2 2 2 2 2 2 9 2 2 2 2 2 2 2 2 9 2 9 2 2 2 2 2 2 9 2 2 2 2 2 2 2 2 2 9 2 2 2 2 2 2 2 2 2 2 2 2 2 9 2 2 2 2 9 2 2 9 2 2 2 9 2 9 2 2 2 2 2 9 2 9 9 9 9 2 2 2 9 2 2 2 2 2 9 2 2 2 2 2 2
left_child=1 3 5 11 10 8 12 15 17 19 20 44 22 30 21 24 31 34 56 60 49 75 69 29 37 40 33 52 81 -12 50 53 55 68 -2 36 82 -4 90 86 -26 78 74 59 -1 -36 76 83 71 -3 -6 -32 -11 -13 63 77 92 72 -52 85 -8 -48 -31 88 80 -23 -49 -53 -17 70 -5 -19 -27 -64 -10 -9 -22 -14 -16 -39 -28 -18 -24 -15 -41 -21 -25 -46 -37 -71 -20 -42 -7 -44 -54
right_child=2 4 7 6 13 18 9 14 42 27 23 16 32 47 41 26 28 48 38 43 46 65 35 39 25 57 64 -29 -30 62 51 -33 -34 -35 45 54 -38 79 -40 84 91 -43 93 -45 87 -47 61 66 -50 -51 58 67 94 -55 -56 -57 -58 -59 -60 -61 -62 -63 73 -65 -66 -67 -68 -69 -70 89 -72 -73 -74 -75 -76 -77 -78 -79 -80 -81 -82 -83 -84 -85 -86 -87 -88 -89 -90 -91 -92 -93 -94 -95 -96
leaf_value=-0.06863393305662556 -0.084427173242407616 0.067055983854815357 -0.065205348995596504 0.051667396116021475 -0.024869718592793022 -0.084547139471757279 -0.0013848961851067605 0.023255962280923262 -0.019735193420144018 0.061820290165719306 0.092652829592858477 -0.021337275769186564 0.056384851026633959 -0.026351305887014478 -0.029077423658568798 -0.015905302251435157 -0.048352930704771147 -0.038655388002548835 -0.080515971546014087 0.029662549634618771 -0.035144799098816647 0.060164775345890043 0.031148063553445959 0.067000571316924121 -0.020926546171484543 -0.044016551747901068 -0.02421774173922854 0.016386042475336184 -0.0013546147291165758 -0.061242491683064039 0.10991223319057504 0.030873382703577503 0.086618716950776248 0.01742271619025473 -0.053597810230085675 0.045385909449986474 -0.0089688391308681541 -0.032407873044501177 -0.048228776282872393 0.049003830882889732 0.0030564448615666476 -0.053263935525964368 0.0017634409637099309 0.043836108914828129 -0.046124618498901447 -0.070373573221815991 0.045014731063792966 0.12288342716750141 -0.027164543240200296 0.03332840666773234 0.11162968160115028 0.086861601048558237 0.025001763409045141 0.0090098313866277206 0.0050143401974867378 0.071174514122808716 -0.075109701264099937 -0.070573177043984373 0.09380249522867079 -0.0034414429532759086 -0.020176917571183822 0.018982891054869805 0.030636984016192293 0.074765986431558434 -0.055372701844885332 0.033394081578353073 0.14689678140140056 0.062440017990838814 0.031834192710717947 0.064831766247670647 0.012178667925688225 -0.057328355461805813 -0.0094518357751704751 0.073352860187247154 -0.042905812938587078 -0.00047166548609743034 0.016119267049041482 0.032345103717988717 0.0030858996375341683 -0.051804630010652913 0.015141461719242242 -0.028525908645265725 0.009386436585534598 0.10328826561931059 0.073235557635698528 0.0073615692081197871 0.091222663684292257 -0.015141112630987866 0.01762828489243758 0.13363392634208737 -0.069070477853090811 0.038614141840048022 -0.094180165526552645 -0.023091111771084478 0.051757593972857445
leaf_weight=5933.0510894842446 9748.6189689859748 11227.518390804529 6571.82857593894 7785.3627168685198 161.21706183254719 23115.059810180217 8437.9119470119476 5402.2135447785258 4474.2013686150312 4888.1711236909032 16028.183895029128 4591.4825422614813 7958.5241817459464 88.926781490445137 2095.3203262910247 8826.7120138332248 6085.0572969578207 8438.3536612093449 19104.426839709282 4608.7771864458919 830.92992931604385 4720.1131677031517 8833.9662803560495 7519.319704964757 6504.2577497214079 8223.6921154782176 9089.2927377149463 12110.209473840892 5053.00380179286 112.97422186285257 2664.9915349930525 4650.6688477769494 4947.9285042732954 7270.6343317478895 17750.274348624051 6253.1058261021972 4219.7391941174865 11994.108104810119 5509.5437193997204 15537.163735039532 5546.4788630828261 1698.1481748521328 4071.6839479282498 2460.9372278079391 6234.734962914139 25367.417027786374 8885.2062928751111 14663.140582069755 7319.1380380056798 2893.4168141931295 14277.010395482183 6847.6966439634562 5855.7273557856679 6151.0557485893369 1921.7928876876831 6528.7153406068683 11579.295452445745 2629.4466851502657 15342.267916828394 11078.684552326798 17676.328926034272 4422.8422685414553 996.70270527899265 1642.8929589912295 1848.9307048916817 5829.2403052896261 3978.1060331165791 5872.8470389097929 853.28344778716564 3077.284403771162 1641.7268801555037 11956.417226776481 1698.9041140675545 16702.742217153311 9356.3676413148642 6163.1775598973036 2265.0664133951068 4467.0542536824942 5431.4259452223778 6051.3491571806371 1080.4527684226632 10120.377353936434 4872.109826169908 4503.4832285493612 2936.5848145410419 7810.7798293083906 3633.3468379080296 1956.6380990594625 2657.701330602169 317.93027624487877 22775.434908207506 1301.5482801496983 36018.616831876338 4337.000660456717 2536.3244124278426
leaf_count=91164 169608 78018 106985 59472 950 417961 100464 54065 58329 38475 86485 56561 59154 675 24583 112441 90134 123712 330746 48015 9276 38545 76240 52469 82009 118986 118997 116948 51893 802 13850 38326 28815 79734 279176 54219 39230 169587 86741 113604 62453 24102 51707 22558 90864 423774 72479 63359 103027 24878 66518 38984 49013 67647 17362 38885 201772 41071 75025 124413 219969 41371 6856 14124 27467 48309 16316 34609 9473 23610 12920 187129 23327 100740 137027 63498 21880 36273 63430 90281 13521 137830 46052 19700 18098 82484 21947 20972 24780 2082 386148 13050 668049 62120 18376
internal_value=0 0.0430008 -0.0498394 0.0120772 0.0802035 -0.0676533 0.0247095 -0.0143304 -0.05206 0.00869985 0.062649 -0.0238945 0.0431848 0.104326 0.0149224 -0.0258635 -0.0133344 -0.0591965 -0.0812288 -0.00200449 0.0439308 0.0272459 0.0326544 0.0716517 -0.0349002 -0.024417 -0.0101037 0.0306534 -0.0277428 0.0808447 0.0949129 0.00655541 0.0622275 0.000793261 -0.0673325 0.02457 0.0158125 -0.0459315 -0.0712615 0.061151 -0.00516024 -0.0146208 -0.0262018 0.0101682 -0.0512514 -0.0634675 0.0299549 0.122626 -0.0436766 0.0601026 0.101776 0.0816293 0.0436639 -0.00397234 0.0371731 0.0558603 -0.0879085 -0.0449014 0.102465 0.00664224 -0.0141049 0.0364113 0.070128 0.0430291 -0.0254723 0.0454608 0.128008 0.075704 -0.0116971 0.0517628 0.0447904 -0.0496024 -0.0380985 0.0710062 -0.0354101 0.0106312 0.00229913 0.0478139 -0.00590236 -0.0389124 -0.0200361 -0.0359709 0.023442 0.100778 0.0528271 0.0156372 0.0748246 -0.0387237 0.0371777 0.0712744 -0.0742916 0.0098146 -0.0904147 -0.0110559 0.0330882
internal_weight=0 357757 331752 195366 162392 220922 144590 110831 102819 77463.9 93992 50776.1 67125.8 68399.7 31339.6 79490.9 36651.6 80580.2 118102 52073.4 30525 22114.7 43223.6 63467 50521.6 25904.3 28969.3 25390.4 21258.4 33840.6 45166 15393.2 23902.2 16950.6 52866.3 30401.3 17925.8 24617.3 47389.4 29626.4 13352.3 9224.89 22239.3 25959.2 14124.4 43117.7 16404 23233.7 27713.9 14120.9 29780.5 15385.5 13280.2 10742.5 12475.5 18954.3 70713 12552 29619.3 23498.2 26114.2 13308 17812.4 10553.7 12018.7 10549.4 18641.2 12720.5 9680 12822.3 9427.09 20394.8 9922.6 17699.4 13830.6 11565.4 3096 12425.6 7526.75 18045.5 10169.7 16205.4 13706.1 4592.41 18473.7 12419.6 11152.7 8191.37 8910.81 3395.21 41879.9 6848.03 59133.7 8408.68 8392.05
internal_count=8051153 2978213 5072940 1999324 978889 3687026 1353933 1385914 1595609 820715 648903 645391 533218 329986 316532 1069382 442391 1286426 2091417 597903 247902 204417 370091 401001 707749 340896 361633 222812 279857 194883 229936 162534 163127 201648 872558 272007 161522 366853 803635 206118 157512 112115 309183 277470 203000 702950 145006 100050 413868 102896 142493 87443 105864 124208 110485 134312 1287782 183384 141543 254912 320433 113850 108398 93123 159985 86854 79675 73593 121914 98084 72392 310841 142313 107596 195356 117563 31156 95427 88013 259868 132518 227964 122292 20375 131702 130499 74416 111836 78999 25692 716894 75503 1086010 113827 67389
cat_boundaries=0 5 9 13 17 22 27 31 36 41 46 51 56 61 65 70 75 80
cat_threshold=575278112 276860928 1084556612 1078206914 112 2240053258 538051905 944775299 688455708 17047822 132097 1078984711 17301528 2533359882 1610949929 1611702279 956825616 16777220 1081232129 139468800 671645713 1 1141965316 2287992850 117574177 2493567520 12 2231640064 458849 1209016321 623378460 2109892 36022824 1141424136 36706817 3 624574468 6422545 2303757322 706842624 4 153174544 7872529 2823825416 136908800 10 542770176 2424311824 44375824 3221234114 32 23175248 274743825 710716808 69632 1 542836768 273186832 1126370624 33820930 42 2172649482 1611728453 2824396801 218630165 3661627466 1611082336 1479540742 25199620 64 2617278592 1645486956 134791304 671172613 2 3229630480 536938604 948494560 170985477 2
is_linear=0
shrinkage=0.1


Tree=7
num_leaves=96
num_cat=19
split_feature=14 10 11 9 11 14 14 11 10 14 11 14 10 9 9 10 8 5 14 5 8 10 10 8 11 9 14 11 14 11 3 14 10 9 0 14 9 10 14 2 7 7 0 3 5 9 10 14 7 5 8 9 5 14 5 10 0 5 3 3 5 10 10 9 2 0 10 5 3 14 14 9 5 14 7 2 1 1 0 5 5 5 14 11 5 5 14 11 5 5 5 5 1 2 2
split_gain=123453 37662.3 12306.5 8556.79 6423.09 5076.36 2638.01 2388.58 2025.52 1557.47 1520.47 1400.76 1084.59 962.608 935.43 801.585 794.411 707.504 698.968 677.088 676.391 584.623 574.762 549.733 527.406 511.357 452.571 444.406 379.887 347.493 345.867 344.239 325.61 325.543 316.503 444.459 311.373 309.29 300.67 285.731 273.978 259.525 242.13 242.365 241.913 228.871 225.593 223.005 209.233 204.56 200.329 193.175 193.091 190.536 187.777 187.161 186.99 181.417 179.751 174.709 174.386 170.142 169.997 169.239 164.063 162.542 158.152 148.572 146.302 138.907 137.414 137.297 133.57 132.725 132.655 132.298 151.151 131.228 130.937 129.274 127.461 126.121 126.041 124.589 122.231 121.372 120.78 116.623 116.14 115.871 114.987 113.889 107.803 152.119 143.364
threshold=4.5000000000000009 2.5000000000000004 0.083771932870149626 0.4772265106439591 0.37581168115139013 2.5000000000000004 13.500000000000002 0.16760300099849704 1.5000000000000002 1.5000000000000002 0.62605932354927074 2.5000000000000004 1.5000000000000002 0.62809219956398021 0.27558170258998876 1.5000000000000002 2871.0000000000005 0 10.500000000000002 1 3132.5000000000005 6.5000000000000009 1.5000000000000002 24834.000000000004 0.15821565687656405 0.68378821015357982 2.5000000000000004 0.03141447342932225 14.500000000000002 0.13906469941139224 9.5067567825317401 1.5000000000000002 9.5000000000000018 0.81229603290557872 11.500000000000002 11.500000000000002 0.65505805611610424 1.5000000000000002 1.5000000000000002 113.50000000000001 102441.50000000001 18754.000000000004 6.5000000000000009 12.173163414001467 2 0.81229603290557872 3.5000000000000004 1.5000000000000002 40294.000000000007 3 27456.000000000004 0.27558170258998876 4 1.5000000000000002 5 7.5000000000000009 11.500000000000002 6 8.5060977935791033 16.644957542419437 7 6.5000000000000009 2.5000000000000004 0.25080399215221411 178.50000000000003 9.5000000000000018 14.500000000000002 8 15.559027671813967 8.5000000000000018 16.500000000000004 0.75444394350051891 9 -1.0000000180025095e-35 10928.500000000002 83.500000000000014 142.50000000000003 367.50000000000006 23.500000000000004 10 11 12 1.0000000180025095e-35 0.12571839243173602 13 14 1.0000000180025095e-35 0.84680575132370006 15 16 17 18 425.50000000000006 175.50000000000003 85.500000000000014
decision_type=2 2 2 2 2 2 2 2 2 2 2 2 2 2 2 2 2 9 2 9 2 2 2 2 2 2 2 2 2 2 2 2 2 2 2 2 2 2 2 2 2 2 2 2 9 2 2 2 2 9 2 2 9 2 9 2 2 9 2 2 9 2 2 2 2 2 2 9 2 2 2 2 9 2 2 2 2 2 2 9 9 9 2 2 9 9 2 2 9 9 9 9 2 2 2
left_child=1 3 6 9 11 8 12 16 13 19 26 17 20 31 85 23 34 61 21 -1 51 50 65 42 44 39 36 74 30 72 -18 60 49 38 63 46 66 52 59 47 83 -29 43 -7 64 -27 -36 67 -22 -12 57 -2 -21 73 -26 79 68 -9 -28 -15 -5 71 -14 -4 -19 -16 82 -10 -17 -53 -20 -3 -13 -34 -8 76 -62 -38 -24 -31 -45 -40 -6 -32 -60 -11 -56 -75 -61 -23 -39 -33 94 -94 -88
right_child=2 4 7 5 10 15 27 18 25 14 32 29 62 33 22 56 28 24 70 37 48 89 78 -25 54 45 58 41 -30 55 40 91 53 -35 35 -37 77 90 81 -41 -42 -43 -44 80 -46 -47 -48 -49 -50 -51 -52 69 -54 -55 86 -57 -58 -59 84 88 75 -63 -64 -65 -66 -67 -68 -69 -70 -71 -72 -73 -74 87 -76 -77 -78 -79 -80 -81 -82 -83 -84 -85 -86 -87 92 -89 -90 -91 -92 -93 93 -95 -96
leaf_value=-0.035563318978159036 -0.084939110005161689 0.058926128153086822 -0.080641129632718148 -0.013656252800226896 -0.036997701560050507 0.020131822876663315 -0.091881376559421968 -0.030898849237930015 0.061721020752141191 -0.073115548891806922 0.10685883685537237 -0.029417813833987103 -0.04104146366165206 0.026711729075965935 -0.029858174617036798 0.040511161227176733 -0.0024727615497050744 0.052225928516158572 -0.024411484174070831 0.015107243781171984 -0.055465110499041383 0.049044899265496773 0.0018460040185127487 0.0081205246844071998 0.02402443711544601 0.0571637052809848 0.083419745254314878 -0.078790339160562176 -0.052480421235090384 0.041207911201023462 -0.036985399453814245 -0.025199981008866831 -0.014772273127578901 0.075079406015447658 -0.033466342923218879 -0.059337975439143646 0.084239118856708539 0.0004944522635333252 0.023469501239256497 0.017267050222538931 0.0052121447386140919 -0.060020267635335134 -0.027312989341940291 -0.034118190798479914 0.0096706135845008659 0.09621649474474378 -0.00087706175232004171 0.030715642544605033 -0.034862493993959506 0.08497901156999374 0.016701912750233749 -0.060620213794704614 -0.012999043334650951 0.092331342456377086 -0.056499072461125788 0.052711933107401965 0.00069403686324757941 -0.0038958206613717173 0.063852971656931864 0.054256918444620467 0.021177450360611954 0.081213646699343778 -0.019061869576280043 -0.05198979938486719 0.020232319311667333 -0.046714511392174626 0.095325897718696873 0.041873484981763437 0.012814743417845015 -0.073685086820382176 -0.060116682179378211 0.07909426545808329 0.015624839756806076 0.11798044946096259 -0.079303184497285656 0.0053853304507884532 0.064791241370801278 0.10179985154771885 -0.031609395706797223 0.022827766485305927 -0.009426722925195084 0.00087917842951526081 0.0693331131438336 -0.020794951315831482 0.036368868837319789 -0.047427032748240977 0.062131077641281868 0.14358321986704911 0.031103828801562639 0.020832961502880807 0.036903845669126349 -0.00035172332448741358 0.084203291215869613 0.054284193213749082 0.045591555183634079
leaf_weight=5073.1836753226817 7818.7274472936988 13468.387032866478 2366.9816214852035 1822.2790798693895 112.11953185498714 2252.5405292734504 35135.401632837951 3308.0779499337077 6781.5992333292961 6574.7315734960139 9187.7166618257761 724.94294565916061 10228.584990222007 8539.477877728641 13288.811922665685 2898.4920509904623 7410.9834897741675 4481.7448463886976 3170.298808760941 3808.5483831614256 18223.555279109627 2032.8900798931718 5798.6874926239252 8668.5775088965893 1858.9871766790748 12752.79745516181 1832.401419736445 35548.58684707433 4467.8317350745201 6993.0963993370533 12940.791923843324 2145.4651964828372 69.192936599254608 1628.8872385472059 7907.0376298762858 5641.2434491030872 19951.747766748071 1160.2212800011039 8291.0508883148432 5086.6181698292494 2321.4839407727122 9291.6734920330346 19405.163652539253 2832.6546673253179 3947.5174040496349 1700.8174007087946 2904.3047683872283 9029.9005698636174 6756.9967792406678 9421.9191933423281 3355.7131562009454 15595.272622112185 6783.4604685306549 2510.8094665706158 92.931197188794613 5349.8557799756527 7613.1160387173295 9985.2718652710319 2905.5300862193108 6412.0420247241855 13099.000371344388 8409.9946719408035 5364.2846935093403 15981.256110031158 2495.178299240768 10044.555412571877 2522.4353942722082 9151.8537776097655 5576.8153592124581 17018.455494616181 1633.1267606765032 4504.2747510746121 6419.7841548621655 7297.9227520674467 11012.779566396028 5398.0575943812728 845.94555879384279 5409.0801118612289 1465.5125291571021 8708.5664889886975 8012.9268903136253 3531.4024226590991 19510.512096494436 7511.9066116549075 3950.9550070017576 2799.523345541209 10857.034870304167 2352.7056056261063 3444.3920771032572 5315.7244540601969 3524.6196097657084 12801.920905977488 3264.3488258272409 3544.6432119011879 10131.151766851544
leaf_count=72149 146921 84018 42823 18825 716 27022 703048 37830 42290 108940 39091 8331 157523 67799 193285 26882 96737 34866 44151 40644 305311 19151 60950 97698 13722 80537 10780 675808 71592 57571 188157 26155 493 11722 111700 94649 96592 9958 83893 43785 28616 161459 265384 35518 37540 9769 35336 74160 102722 41329 35659 268265 82542 11656 670 37296 84313 112728 19052 47676 120759 46214 78660 259637 20006 154196 11840 62649 52809 311934 24826 25686 65210 30086 209877 52450 8120 24903 18281 74608 98363 36668 101541 99793 26812 43895 69506 9423 27838 50484 27808 153090 20069 22053 65254
internal_value=0 0.032784 -0.0541764 0.00588102 0.0667355 0.0173788 -0.0703053 -0.0259429 0.0297191 -0.0264696 0.0863729 0.0487922 -0.0571798 0.018859 -0.0379347 -0.00685846 -0.0359833 0.0566557 -0.00173062 -0.00394967 -0.0628292 0.0052391 -0.0294672 -0.0142546 0.0483294 0.0463032 0.0765813 -0.0819908 -0.0252656 0.030091 -0.0212374 0.00768256 0.104214 0.0315324 -0.0466554 -0.0365843 0.0804193 0.00656767 0.029185 0.038869 -0.0273437 -0.0749009 -0.020222 -0.00971654 0.0295501 0.0617592 -0.0247117 0.0432707 -0.0498923 0.0958843 -0.00513048 -0.0708221 -0.00289093 0.116889 0.0552417 0.0365584 0.012069 -0.0106418 0.0555974 0.0371816 0.0158874 0.0694477 -0.03348 -0.0556859 0.0407256 -0.0371145 0.0717555 0.050386 0.0222867 -0.0674377 -0.036551 0.0639806 0.0110353 0.123233 -0.0888797 0.0186681 0.0238232 0.0879846 -0.00490344 0.0310546 -0.0159158 0.0167423 0.0687256 -0.0310389 0.0481618 -0.0655725 0.0572933 0.124222 0.0462525 0.0287325 0.0279667 -0.0039354 0.0576944 0.0686279 0.0541473
internal_weight=0 412333 270249 230046 182287 169724 171994 98254.9 112464 60321.9 87035 95252.4 81005.9 67959.9 39971.8 57260.3 69453.8 67056.2 28801.1 20350 65413 23997.7 30597.6 41171.9 40673.5 44503.6 56194.8 90988.4 34653 28196.2 30185.2 36112.7 30840.3 31847.3 34800.8 16452.6 47505.9 15276.8 30218.4 30050 22774.2 44840.3 32503.3 13098.1 10924.4 14453.6 10811.3 24963.4 24980.6 18609.6 16649.1 40432.5 10592 12230.6 29749.1 21051.5 16088.4 13293.3 8688.89 18395.9 21165.3 26382.7 15592.9 18348.2 6976.92 23333.4 22145.1 15933.5 8475.31 32613.7 4803.43 17972.7 7144.73 9719.82 46148.2 19343 13944.9 25360.8 7264.2 15701.7 10845.6 11822.5 19622.6 20452.7 6856.49 9374.25 27890.1 9650.63 9856.43 7348.61 4684.84 14947.4 27797.2 6808.99 20988.2
internal_count=8051153 3575756 4475397 2468822 1106934 1656174 3121528 1353869 968185 812648 424314 682620 1371336 654995 579547 687989 1029040 439604 324829 233101 1135153 255852 426712 523985 283686 313190 292236 1750192 484895 243016 413303 379399 132078 275596 544145 241685 235592 160952 263874 222884 316566 837267 426287 160903 92412 90306 147036 179099 408033 80420 186217 727120 123186 51658 191274 169475 164004 150558 56644 143313 200154 155918 236183 302460 54872 347481 114097 104939 79691 580199 68977 109704 73541 40002 912925 181329 128879 121495 79231 132179 133881 120561 102257 287950 45864 152835 177552 39509 75514 69635 37766 179245 176882 42122 134760
cat_boundaries=0 4 9 14 18 23 28 32 37 41 46 50 55 60 64 69 73 78 83 88
cat_threshold=2231372042 1074218753 475046019 822607892 643435520 276860928 1118113088 1078206786 48 8429764 540026988 537673740 204539913 67 2164260864 540017737 135274505 34144260 427872258 536956768 270053504 184618000 2 140116992 8388624 61153040 1073750466 16 494930440 1124507936 815857703 285212946 173935616 2420146194 1124076624 2953089632 4 2306883598 1611672933 541122563 218628116 408569888 419430400 2199460 2147770688 97 161816592 6521617 2152737024 671717381 1493381258 1107567648 1342439525 405816320 12 19161288 2032769 676864044 705233920 2 1092616722 2153791505 2823815433 1595904 5966944 2148040738 1101005092 6595362 24 2231640328 34866753 1213227140 153619456 2769572 2287993109 50464794 168890373 5 1342177472 2216823321 420610710 807424640 5 2424447302 2181570560 1100096513 2961494528 12
is_linear=0
shrinkage=0.1


Tree=8
num_leaves=96
num_cat=22
split_feature=11 11 11 9 9 11 11 9 10 9 11 10 9 8 9 9 11 9 9 1 9 11 3 1 1 8 0 11 9 5 9 11 9 9 1 11 11 5 0 9 11 9 9 9 3 2 1 8 5 10 11 5 9 4 7 4 9 4 5 1 5 11 9 5 5 5 2 4 5 5 5 9 10 5 7 5 5 2 1 5 4 5 5 4 5 5 2 3 11 5 5 4 12 4 12
split_gain=96755.6 17598.4 14518.4 3792.61 3326.58 2383.45 2300.63 1432.96 1256.24 1144.58 1132.9 699.041 640.794 612.314 566.954 540.763 522.17 505.697 485.388 399.542 395.522 377.329 321.3 301.401 292.478 250.842 240.16 225.044 215.099 196.106 195.126 186.93 184.102 175.623 173.154 170.108 160.41 150.449 133.726 127.879 125.159 123.724 122.577 120.785 119.61 118.907 144.907 117.586 114.739 109.896 104.629 102.362 100.384 99.9524 99.4775 97.1177 96.9408 96.6831 95.6469 95.093 92.5114 91.9347 90.4428 88.0254 86.8296 86.2629 85.6053 78.4067 77.2599 77.1806 77.1034 76.4988 74.6212 74.4223 73.122 72.9988 72.9186 70.6032 91.1479 70.3435 69.5577 68.1377 67.813 67.6515 66.3605 65.3903 64.8824 64.6989 64.2859 63.992 63.7061 63.394 63.106 62.5179 64.0795
threshold=0.14365079998970035 0.3352713286876679 0.062828946858644499 0.55704620480537426 0.51817876100540172 0.60172414779663097 0.032433379441499717 0.56024080514907848 1.5000000000000002 0.28342911601066595 0.20112359523773196 1.5000000000000002 0.6917414963245393 102605.50000000001 0.27558170258998876 0.74253442883491527 0.083771932870149626 0.65160736441612255 0.57262980937957775 118.50000000000001 0.31825006008148199 0.8015151619911195 13.204166412353517 116.50000000000001 104.50000000000001 27456.000000000004 9.5000000000000018 0.22281324118375781 0.82604539394378673 0 0.71393844485282909 0.020942983217537407 0.75444394350051891 0.65160736441612255 238.50000000000003 0.087228260934352889 0.019803921692073349 1 31.500000000000004 0.17786020040512088 0.4555336087942124 0.43752518296241766 0.55222055315971386 0.6151426136493684 10.086335659027101 73.500000000000014 355.50000000000006 27456.000000000004 2 3.5000000000000004 0.043717153370380409 3 0.36878564953804022 12.572599411010744 253302.00000000003 14.678215980529787 0.4232515692710877 13.167840480804445 4 152.50000000000003 5 1.1250000000000002 0.41630548238754278 6 7 8 85.500000000000014 11.007143020629885 9 10 11 0.43752518296241766 3.5000000000000004 12 227752.50000000003 13 14 39.500000000000007 52.500000000000007 15 16.735519409179691 16 17 10.364510536193849 18 19 176.50000000000003 14.282856941223146 0.46720430254936224 20 21 13.167840480804445 2.2880184650421147 16.835416793823246 4.4037036895751962
decision_type=2 2 2 2 2 2 2 2 2 2 2 2 2 2 2 2 2 2 2 2 2 2 2 2 2 2 2 2 2 9 2 2 2 2 2 2 2 9 2 2 2 2 2 2 2 2 2 2 9 2 2 9 2 2 2 2 2 2 9 2 9 2 2 9 9 9 2 2 9 9 9 2 2 9 2 9 9 2 2 9 2 9 9 2 9 9 2 2 2 9 9 2 2 2 2
left_child=2 4 6 9 8 12 18 20 14 39 17 26 22 16 81 19 34 24 36 43 -8 30 40 33 89 50 56 49 57 -24 44 -20 53 69 51 -13 -1 -16 71 -4 79 -28 90 84 -7 -25 64 -33 -37 58 -9 -5 -38 63 -17 73 -11 88 -10 65 -43 87 -39 -19 -47 -29 -57 -34 -51 -18 -26 -22 -50 -21 -27 -46 -68 78 -35 -3 -62 -2 -36 -15 -12 -61 -48 -23 -14 -6 -31 -58 -89 94 -44
right_child=1 5 3 13 10 21 7 25 27 11 15 35 28 83 37 54 23 32 31 55 38 61 29 45 70 74 41 59 -30 42 -32 47 67 77 82 48 52 62 -40 -41 -42 60 93 -45 75 46 86 -49 72 68 -52 -53 -54 -55 -56 66 91 -59 -60 85 80 -63 -64 -65 -66 -67 76 -69 -70 -71 -72 -73 -74 -75 -76 -77 -78 -79 -80 -81 -82 -83 -84 -85 -86 -87 -88 92 -90 -91 -92 -93 -94 -95 -96
leaf_value=-0.086003920230381767 0.0078849197330691703 0.062565581100895232 -0.075857786534805599 -0.03666149984968075 0.0075768668406853597 0.092973555258916873 -0.075253813381412751 -0.046880419511434755 0.022188738665246156 -0.038098845441353092 0.024674763383114352 -0.027694970823909537 0.056401425852708645 0.016325207934705075 0.004007524100447064 0.04798671194851635 -0.029251107061607176 0.028065565068324628 -0.070956214818252428 0.053715154354304719 -0.064885048064287007 0.12028826018542392 0.060783611348749281 0.01727774352228147 -0.00091051780740513647 -0.025228006137407357 -0.051399871906431166 0.03091505188401807 0.089407648933580358 0.0062148016167779202 0.095192310120638224 -0.059125263348982764 0.032711732123866369 -0.0020528449696130954 -0.019782042093767976 0.012411665170780746 -0.081925595806456891 -0.026538012562682751 -0.045216707358757484 -0.05438320241189995 0.070601948283610425 0.05916195263665576 0.053839826087831111 0.028806664522960247 0.085760798792775636 -0.019903077927121898 0.016872381866087381 -0.038631496702515533 -0.017955773632770289 0.046244940547339318 -0.035459438417543836 -0.019559797700281017 -0.069300243345012932 0.031715935874228163 0.06745332220467791 0.06156099218403243 -0.027705963546295662 0.074878742103685433 -0.0072848752049840555 0.047001747708321967 -0.040848122727687744 -0.0037306905870391274 -0.010594362228872532 0.011237175694091765 -0.0012513312128980202 0.0069591435678311208 0.04781475776625272 0.053902711612081627 0.010070061961775758 -0.013013456837207364 0.020661236799052754 -0.054497736423144233 -0.0034735905033729617 0.031933124226701443 0.0025462858821558845 0.067819489142510681 0.032816293947349459 -0.007345576558379527 0.026986350209420897 0.046786015193629835 -0.023076795224159327 -0.057617107553763217 -0.0030923615752805125 0.037258635005451284 0.010963724940488216 0.023711153753868015 0.0028233351022679144 0.12466213720383279 0.068668152222571083 -0.0051155408109492045 0.035681532994447963 -0.012472411945999509 0.093509765494580885 0.059037590794414056 0.039039034197785073
leaf_weight=17211.47192876786 171.27224469184875 6722.0288726985455 4406.4007147178054 5115.5453539192677 6378.8305988758802 4034.3605577796698 12435.567618083209 12954.432067722082 1265.0608931668103 6443.9328433349729 6150.2870750725269 8911.3378718048334 8664.881028406322 3568.8578470908105 4221.912313465029 11170.39751560986 4126.0258964151144 4839.649896658957 11760.787267465144 1773.0726183131337 11100.981735639274 3863.5671561285853 7632.1112726405263 5456.7232988290489 1869.7908636555076 10411.682107783854 10162.072863183916 2075.3035071119666 5093.3978598192334 824.74590846896172 10957.204390197992 11639.108565025032 4719.6296053305268 3099.6044245064259 3649.9417260549963 1891.930581793189 9679.7474854402244 6244.3607790954411 10582.72376459837 7480.6318828314543 9764.7084624245763 91.91464301943779 4499.3602216690779 19515.643453210592 3663.827905267477 2901.1153833381832 6298.8328198418021 3686.4382564462721 11664.424671813846 671.11747122183442 21063.874382186681 11456.528264839202 18023.891043834388 7319.5423553138971 3431.5067767798901 2490.2632125616074 9004.4005568660796 9873.8447506725788 8070.7909578643739 1720.9178979843855 13128.291624091566 70.008371040225029 8270.1251122392714 8810.9894277751446 17532.670579016209 5457.7246286049485 7875.2701955959201 2771.253326702863 4616.5519317798316 10289.332520119846 15057.448771890253 19622.872528515756 5119.4440485164523 17379.077187158167 1042.8409653827548 8885.5145205557346 5948.1723743379116 7897.4741749539971 1659.613242354244 5639.4849817752838 2646.4194580279291 3662.8921153731644 7309.5974142737687 2720.7802119962871 8423.0803378671408 4355.5480932891369 6875.4248172491789 871.61459481716156 8427.4924297854304 10491.783450078219 8334.8965079784393 3921.4977409131825 2560.5181966722012 3655.5313061475754 8360.6233787760139
leaf_count=353175 2474 39952 80569 75463 69280 17481 238479 219321 13362 101385 55757 132631 49184 37047 53757 78104 53325 45741 222420 12923 204123 15669 44824 63131 18652 149292 174660 17535 25705 5364 46325 210033 40603 35319 51108 23281 196971 91364 174950 130947 50529 1273 26266 155995 15932 36026 70538 59946 148956 6397 324961 159534 345314 67405 22725 19045 124332 52069 87820 13233 205843 499 105922 82883 204915 46953 57610 23607 44942 129029 145800 342226 62244 128681 13617 38913 44914 90940 18788 34458 41390 63074 98503 27917 76943 34223 77522 3506 41453 117593 52636 53986 10423 20795 48423
internal_value=0 0.0383358 -0.037458 -0.0180227 0.0198501 0.0681213 -0.0584388 -0.0485639 -0.00219795 -0.0335683 0.0275004 -0.0288817 0.0593072 -0.00482321 -0.0197852 0.0350663 -0.00685134 0.0172735 -0.0720459 0.0313935 -0.0596186 0.0902139 0.0527989 -0.00203404 0.0090031 -0.0354988 -0.0365106 0.011862 0.0705605 0.0465938 0.0848371 -0.061473 0.0270947 -0.0101433 -0.0184235 -0.0163272 -0.078422 -0.0126156 -0.0549115 -0.0623436 0.0621397 -0.042785 0.0423356 0.0236628 0.0779952 0.00358574 0.00136265 -0.0541957 -0.0109029 0.00324904 -0.0398086 -0.0248728 -0.0737116 0.0222877 0.0525614 0.038824 -0.0280794 0.0670006 -0.00327507 0.0211166 -0.0372674 0.110318 -0.0174416 0.0172322 -0.00390979 0.0136091 0.0444939 0.0405513 0.0147679 -0.0176904 0.0182901 -0.0582508 -0.0135303 0.0339944 -0.0226994 0.0731799 0.0414193 -0.00154761 0.00807357 0.0554552 -0.0378428 -0.0548208 -0.00867153 0.0253806 0.0167745 0.0304237 0.00954042 0.111413 0.0624496 -0.000315044 0.0330741 -0.0230844 0.101421 0.0474977 0.0442174
internal_weight=0 319619 356047 184831 197219 122400 171216 99215 50803.6 84872.7 146416 72985.7 87493.1 99958.1 22570.6 84156.8 93668.4 62258.9 72001.4 69554.9 53742.1 34906.6 55433.5 66136.8 33797.9 45472.8 45398.5 28233 32059.6 33307.3 27540.9 27086.3 28461.1 27072.1 27531.6 27587.1 44915.1 18736.4 41306.6 11887 22126.2 26028.7 25675.2 34089 16583.7 39064.8 33608 15325.5 18675.8 14623.5 34018.3 16572.1 27703.6 20970.2 14601.9 35465.9 19369.8 26966.2 9335.85 13609.5 15866.6 7365.71 14514.5 13650.6 20433.8 7533.03 16313.7 7490.88 5287.67 14415.4 16927.2 30723.9 16783.9 19152.1 11454.5 12549.3 13823.4 12656.7 4759.22 12361.5 15774.7 3834.16 10959.5 6289.64 14573.4 6076.47 13174.3 7295.7 17092.4 16870.6 9159.64 12925.9 3432.13 16515.5 12860
internal_count=8051153 2485723 5565430 2510602 1845317 640406 3054828 1666969 581056 1281497 1264261 1069981 491658 1229105 316591 652697 1164141 611564 1387859 551868 959778 148748 323247 779533 351325 707191 702869 264465 168411 198308 118651 492399 260239 327401 384608 367112 895460 251043 721299 211516 124939 423166 153484 288695 72326 452132 389001 269979 234481 152521 544282 234997 542285 196029 100829 263173 279703 142706 101182 111944 248506 30097 197286 128624 240941 64488 121569 64210 51339 182354 164452 546349 211200 141604 162909 54845 102524 145047 54107 74410 247233 65548 149611 64964 132700 47456 148060 29598 90637 186873 58000 178318 13929 95484 74689
cat_boundaries=0 5 10 15 20 25 29 34 39 44 49 54 59 64 68 73 77 81 86 90 95 100 104
